{"learner":{"attributes":{"best_iteration":"99","best_ntree_limit":"100","scikit_learn":"{\"n_estimators\": 100, \"objective\": \"reg:squarederror\", \"max_depth\": 4, \"max_leaves\": null, \"max_bin\": null, \"grow_policy\": null, \"learning_rate\": null, \"verbosity\": null, \"booster\": null, \"tree_method\": null, \"gamma\": null, \"min_child_weight\": null, \"max_delta_step\": null, \"subsample\": 0.6, \"sampling_method\": null, \"colsample_bytree\": 0.5, \"colsample_bylevel\": null, \"colsample_bynode\": null, \"reg_alpha\": null, \"reg_lambda\": null, \"scale_pos_weight\": null, \"base_score\": null, \"missing\": NaN, \"num_parallel_tree\": null, \"random_state\": null, \"n_jobs\": null, \"monotone_constraints\": null, \"interaction_constraints\": null, \"importance_type\": null, \"gpu_id\": null, \"validate_parameters\": null, \"predictor\": null, \"enable_categorical\": false, \"max_cat_to_onehot\": null, \"eval_metric\": null, \"early_stopping_rounds\": null, \"callbacks\": null, \"kwargs\": {\"eta\": 0.1}, \"_estimator_type\": \"regressor\"}"},"feature_names":["is_male","mother_age","plurality","gestation_weeks"],"feature_types":["int","int","int","float"],"gradient_booster":{"model":{"gbtree_model_param":{"num_parallel_tree":"1","num_trees":"100","size_leaf_vector":"0"},"tree_info":[0,0,0,0,0,0,0,0,0,0,0,0,0,0,0,0,0,0,0,0,0,0,0,0,0,0,0,0,0,0,0,0,0,0,0,0,0,0,0,0,0,0,0,0,0,0,0,0,0,0,0,0,0,0,0,0,0,0,0,0,0,0,0,0,0,0,0,0,0,0,0,0,0,0,0,0,0,0,0,0,0,0,0,0,0,0,0,0,0,0,0,0,0,0,0,0,0,0,0,0],"trees":[{"base_weights":[6.738982E0,6.618522E0,6.854141E0,6.43846E0,6.677531E0,6.7373443E0,6.974919E0,6.678503E0,1.7176257E0],"categories":[],"categories_nodes":[],"categories_segments":[],"categories_sizes":[],"default_left":[1,1,1,0,1,0,0,0,0],"id":0,"left_children":[1,3,5,-1,7,-1,-1,-1,-1],"loss_changes":[8.053125E1,4.453125E0,1.80625E1,0E0,4.625E0,0E0,0E0,0E0,0E0],"parents":[2147483647,0,0,1,1,2,2,4,4],"right_children":[2,4,6,-1,8,-1,-1,-1,-1],"split_conditions":[5E-1,2.25E1,2.75E1,6.43846E-1,4.8E1,6.737344E-1,6.974919E-1,6.678503E-1,1.7176257E-1],"split_indices":[0,1,1,0,1,0,0,0,0],"split_type":[0,0,0,0,0,0,0,0,0],"sum_hessian":[9.075E3,4.464E3,4.611E3,1.129E3,3.335E3,2.373E3,2.238E3,3.334E3,1E0],"tree_param":{"num_deleted":"0","num_feature":"4","num_nodes":"9","size_leaf_vector":"0"}},{"base_weights":[6.067327E0,6.1426377E0,3.8344052E0,6.016459E0,6.212998E0,3.8665597E0,5.285173E-1,3.915762E0,2.7730885E0,4.9070513E-1,2.8925338E0],"categories":[],"categories_nodes":[],"categories_segments":[],"categories_sizes":[],"default_left":[1,1,1,0,0,1,0,0,1,0,0],"id":1,"left_children":[1,3,5,-1,-1,7,-1,-1,9,-1,-1],"loss_changes":[1.4831875E3,3.95625E1,2.9314453E1,0E0,0E0,4.8515625E0,0E0,0E0,2.9425354E0,0E0,0E0],"parents":[2147483647,0,0,1,1,2,2,5,5,8,8],"right_children":[2,4,6,-1,-1,8,-1,-1,10,-1,-1],"split_conditions":[1.5E0,2.45E1,3.5E0,6.016459E-1,6.212998E-1,2.5E0,5.2851733E-2,3.915762E-1,2.25E1,4.9070515E-2,2.8925338E-1],"split_indices":[2,1,2,0,0,2,0,0,1,0,0],"split_type":[0,0,0,0,0,0,0,0,0,0,0],"sum_hessian":[8.959E3,8.665E3,2.94E2,3.133E3,5.532E3,2.91E2,3E0,2.76E2,1.5E1,1E0,1.4E1],"tree_param":{"num_deleted":"0","num_feature":"4","num_nodes":"11","size_leaf_vector":"0"}},{"base_weights":[5.4440684E0,3.3545344E0,5.6195188E0,4.0584227E-1,3.704691E0,5.2427244E0,5.823021E0,-2.824457E-1,1.1593332E0,2.9881325E0,4.191152E0,4.673876E0,5.342056E0,5.659117E0,5.8796935E0,5.746681E-1,-3.6747298E-1,7.9004854E-1,1.6832057E0,2.435343E0,3.2698367E0,5.143863E0,5.4370737E0],"categories":[],"categories_nodes":[],"categories_segments":[],"categories_sizes":[],"default_left":[1,1,1,1,1,1,1,1,1,1,0,0,1,0,0,0,0,0,0,0,0,0,0],"id":2,"left_children":[1,3,5,7,9,11,13,15,17,19,-1,-1,21,-1,-1,-1,-1,-1,-1,-1,-1,-1,-1],"loss_changes":[3.2634062E3,7.171196E2,6.026875E2,3.9223854E1,2.0429199E2,1.3923438E2,1.6453125E1,3.1262975E0,5.634674E0,3.1746338E1,0E0,0E0,1.8492188E1,0E0,0E0,0E0,0E0,0E0,0E0,0E0,0E0,0E0,0E0],"parents":[2147483647,0,0,1,1,2,2,3,3,4,4,5,5,6,6,7,7,8,8,9,9,12,12],"right_children":[2,4,6,8,10,12,14,16,18,20,-1,-1,22,-1,-1,-1,-1,-1,-1,-1,-1,-1,-1],"split_conditions":[3.55E1,2.85E1,3.85E1,2.55E1,3.35E1,3.65E1,2.25E1,1.75E1,2.85E1,3.15E1,4.1911522E-1,4.673876E-1,3.75E1,5.659117E-1,5.8796936E-1,5.7466812E-2,-3.67473E-2,7.9004854E-2,1.6832058E-1,2.4353431E-1,3.2698366E-1,5.1438636E-1,5.437074E-1],"split_indices":[3,3,3,3,3,3,1,1,1,3,0,0,3,0,0,0,0,0,0,0,0,0,0],"split_type":[0,0,0,0,0,0,0,0,0,0,0,0,0,0,0,0,0,0,0,0,0,0,0],"sum_hessian":[8.952E3,6.95E2,8.257E3,7.4E1,6.21E2,2.905E3,5.352E3,3.9E1,3.5E1,2.54E2,3.67E2,4.39E2,2.466E3,1.401E3,3.951E3,3E0,3.6E1,2.2E1,1.3E1,8.9E1,1.65E2,8.17E2,1.649E3],"tree_param":{"num_deleted":"0","num_feature":"4","num_nodes":"23","size_leaf_vector":"0"}},{"base_weights":[4.9159875E0,3.0330796E0,5.068357E0,1.2465975E0,3.5981061E0,4.7144017E0,5.2584558E0,3.332834E-1,2.1228848E0,3.7558455E0,2.7989943E0,4.458526E0,4.907449E0,5.264531E0,3.6850994E0,-5.4896617E-1,5.5889815E-1,2.3999364E0,1.2957965E0,3.3649683E0,3.8960373E0,2.3665037E0,3.0949256E0,4.5249743E0,3.4503834E0,4.922585E0,4.0198197E0,5.171782E0,5.331002E0,3.8973675E0,1.6494172E0],"categories":[],"categories_nodes":[],"categories_segments":[],"categories_sizes":[],"default_left":[1,1,1,1,1,1,1,1,1,1,1,1,1,1,1,0,0,0,0,0,0,0,0,0,0,0,0,0,0,0,0],"id":3,"left_children":[1,3,5,7,9,11,13,15,17,19,21,23,25,27,29,-1,-1,-1,-1,-1,-1,-1,-1,-1,-1,-1,-1,-1,-1,-1,-1],"loss_changes":[2.5503438E3,6.738379E2,5.318125E2,1.2974554E2,5.3773438E1,1.2137109E2,3.1953125E1,1.6429747E1,1.5909332E1,1.0069824E1,3.9387207E0,6.866016E1,2.2851562E0,5.40625E0,3.9422607E0,0E0,0E0,0E0,0E0,0E0,0E0,0E0,0E0,0E0,0E0,0E0,0E0,0E0,0E0,0E0,0E0],"parents":[2147483647,0,0,1,1,2,2,3,3,4,4,5,5,6,6,7,7,8,8,9,9,10,10,11,11,12,12,13,13,14,14],"right_children":[2,4,6,8,10,12,14,16,18,20,22,24,26,28,30,-1,-1,-1,-1,-1,-1,-1,-1,-1,-1,-1,-1,-1,-1,-1,-1],"split_conditions":[3.55E1,3.15E1,3.85E1,2.85E1,1.5E0,3.75E1,1.5E0,2.35E1,1.5E0,3.35E1,3.35E1,1.5E0,1.5E0,3.95E1,4.15E1,-5.489662E-2,5.5889815E-2,2.3999365E-1,1.2957965E-1,3.3649683E-1,3.8960373E-1,2.3665038E-1,3.0949256E-1,4.5249745E-1,3.4503835E-1,4.9225852E-1,4.0198198E-1,5.1717824E-1,5.3310025E-1,3.8973674E-1,1.6494171E-1],"split_indices":[3,3,3,3,2,3,2,3,2,3,3,2,2,3,3,0,0,0,0,0,0,0,0,0,0,0,0,0,0,0,0],"split_type":[0,0,0,0,0,0,0,0,0,0,0,0,0,0,0,0,0,0,0,0,0,0,0,0,0,0,0,0,0,0,0],"sum_hessian":[8.942E3,6.71E2,8.271E3,1.62E2,5.09E2,2.899E3,5.372E3,8E1,8.2E1,4.22E2,8.7E1,1.257E3,1.642E3,5.349E3,2.3E1,1.6E1,6.4E1,6E1,2.2E1,1.18E2,3.04E2,3.9E1,4.8E1,1.176E3,8.1E1,1.61E3,3.2E1,2.266E3,3.083E3,2E1,3E0],"tree_param":{"num_deleted":"0","num_feature":"4","num_nodes":"31","size_leaf_vector":"0"}},{"base_weights":[4.4264035E0,2.7619026E0,4.5694113E0,9.4581246E-1,3.14655E0,4.0103645E0,4.6696005E0,3.4428307E-1,1.7303365E0,2.656911E0,3.391463E0,3.8043895E0,4.1167755E0,4.4403467E0,4.7384424E0,-5.220505E-1,5.6239897E-1,1.814302E0,5.446155E-1,2.0698E0,2.7570171E0,4.5654197E0,4.7976627E0],"categories":[],"categories_nodes":[],"categories_segments":[],"categories_sizes":[],"default_left":[1,1,1,1,1,1,1,1,1,1,0,0,0,0,1,0,0,0,0,0,0,0,0],"id":4,"left_children":[1,3,5,7,9,11,13,15,17,19,-1,-1,-1,-1,21,-1,-1,-1,-1,-1,-1,-1,-1],"loss_changes":[2.106875E3,4.9090186E2,4.404375E2,5.8393562E1,6.0901855E1,1.1802734E1,8.8578125E1,1.38988E1,4.3881226E0,5.98938E0,0E0,0E0,0E0,0E0,3.2679688E1,0E0,0E0,0E0,0E0,0E0,0E0,0E0,0E0],"parents":[2147483647,0,0,1,1,2,2,3,3,4,4,5,5,6,6,7,7,8,8,9,9,14,14],"right_children":[2,4,6,8,10,12,14,16,18,20,-1,-1,-1,-1,22,-1,-1,-1,-1,-1,-1,-1,-1],"split_conditions":[3.55E1,3.05E1,3.75E1,2.85E1,3.35E1,3.65E1,3.85E1,2.35E1,3.8E1,3.15E1,3.3914632E-1,3.8043895E-1,4.1167757E-1,4.4403467E-1,2.25E1,-5.2205052E-2,5.62399E-2,1.814302E-1,5.446155E-2,2.0697999E-1,2.7570173E-1,4.56542E-1,4.7976628E-1],"split_indices":[3,3,3,3,3,3,3,3,1,3,0,0,0,0,1,0,0,0,0,0,0,0,0],"split_type":[0,0,0,0,0,0,0,0,0,0,0,0,0,0,0,0,0,0,0,0,0,0,0],"sum_hessian":[8.903E3,7.06E2,8.197E3,1.24E2,5.82E2,1.252E3,6.945E3,7.1E1,5.3E1,1.98E2,3.84E2,4.39E2,8.13E2,1.619E3,5.326E3,1.4E1,5.7E1,4.9E1,4E0,3.2E1,1.66E2,1.378E3,3.948E3],"tree_param":{"num_deleted":"0","num_feature":"4","num_nodes":"23","size_leaf_vector":"0"}},{"base_weights":[3.9906046E0,2.0787365E0,4.09517E0,3.4787944E-1,2.413275E0,3.557009E0,4.205209E0,-4.2753246E-1,5.785495E-1,1.7212998E0,2.6171687E0,3.319735E0,3.7440817E0,3.985246E0,4.270463E0,-4.7390556E-1,1.804052E-1,3.4524035E-1,1.0515561E0,1.8305278E0,1.2700384E0,2.8141732E0,1.9123427E0,3.375973E0,2.769442E0,3.786635E0,2.9698112E0,4.275351E0,2.9490464E0],"categories":[],"categories_nodes":[],"categories_segments":[],"categories_sizes":[],"default_left":[1,1,1,1,1,1,1,1,1,1,1,1,1,0,1,0,0,0,0,0,0,0,0,0,0,0,0,0,0],"id":5,"left_children":[1,3,5,7,9,11,13,15,17,19,21,23,25,-1,27,-1,-1,-1,-1,-1,-1,-1,-1,-1,-1,-1,-1,-1,-1],"loss_changes":[1.7647344E3,2.6667603E2,4.8301562E2,1.3841037E1,5.009668E1,5.1222656E1,8.3109375E1,5.929501E-1,6.1480103E0,2.1605835E0,3.585791E1,1.0487793E1,1.4915039E1,0E0,2.2054688E1,0E0,0E0,0E0,0E0,0E0,0E0,0E0,0E0,0E0,0E0,0E0,0E0,0E0,0E0],"parents":[2147483647,0,0,1,1,2,2,3,3,4,4,5,5,6,6,7,7,8,8,9,9,10,10,11,11,12,12,14,14],"right_children":[2,4,6,8,10,12,14,16,18,20,22,24,26,-1,28,-1,-1,-1,-1,-1,-1,-1,-1,-1,-1,-1,-1,-1,-1],"split_conditions":[3.45E1,2.85E1,3.75E1,2.45E1,3.15E1,3.65E1,3.85E1,3E0,2.75E1,1.5E0,1.5E0,1.5E0,1.5E0,3.985246E-1,1.5E0,-4.7390558E-2,1.8040521E-2,3.4524035E-2,1.0515561E-1,1.8305278E-1,1.2700383E-1,2.8141734E-1,1.9123428E-1,3.375973E-1,2.7694422E-1,3.786635E-1,2.9698113E-1,4.2753512E-1,2.9490465E-1],"split_indices":[3,3,3,3,3,3,3,2,3,2,2,2,2,0,2,0,0,0,0,0,0,0,0,0,0,0,0,0,0],"split_type":[0,0,0,0,0,0,0,0,0,0,0,0,0,0,0,0,0,0,0,0,0,0,0,0,0,0,0,0,0],"sum_hessian":[8.869E3,4.61E2,8.408E3,7.5E1,3.86E2,1.433E3,6.975E3,1.7E1,5.8E1,9E1,2.96E2,6.4E2,7.93E2,1.61E3,5.365E3,1.6E1,1E0,4E1,1.8E1,7E1,2E1,2.29E2,6.7E1,5.76E2,6.4E1,7.48E2,4.5E1,5.343E3,2.2E1],"tree_param":{"num_deleted":"0","num_feature":"4","num_nodes":"29","size_leaf_vector":"0"}},{"base_weights":[3.587307E0,3.6333857E0,2.1781945E0,3.5238588E0,3.737989E0,2.2017894E0,4.2123896E-1,2.2345362E0,1.5637318E0,5.415105E-1,1.6055441E-1],"categories":[],"categories_nodes":[],"categories_segments":[],"categories_sizes":[],"default_left":[1,1,1,0,0,1,1,0,0,0,0],"id":6,"left_children":[1,3,5,-1,-1,7,9,-1,-1,-1,-1],"loss_changes":[5.693125E2,8.54375E1,1.0845825E1,0E0,0E0,2.3562012E0,6.982285E-2,0E0,0E0,0E0,0E0],"parents":[2147483647,0,0,1,1,2,2,5,5,6,6],"right_children":[2,4,6,-1,-1,8,10,-1,-1,-1,-1],"split_conditions":[1.5E0,5E-1,3.5E0,3.5238588E-1,3.737989E-1,2.5E0,5E-1,2.2345363E-1,1.5637319E-1,5.4151054E-2,1.605544E-2],"split_indices":[2,0,2,0,0,2,0,0,0,0,0],"split_type":[0,0,0,0,0,0,0,0,0,0,0],"sum_hessian":[8.889E3,8.606E3,2.83E2,4.221E3,4.385E3,2.79E2,4E0,2.63E2,1.6E1,2E0,2E0],"tree_param":{"num_deleted":"0","num_feature":"4","num_nodes":"11","size_leaf_vector":"0"}},{"base_weights":[3.22903E0,1.8461516E0,3.3437624E0,4.842217E-1,2.2262084E0,3.0843596E0,3.4827197E0,-2.6769128E-1,1.0218897E0,2.3445282E0,1.7292486E0,2.8972206E0,3.223601E0,3.3824468E0,3.5523593E0,-5.214967E-1,1.0883108E-1,6.566327E-1,1.2120895E0,1.9012136E0,2.394088E0,1.3678325E0,1.9912182E0,2.934623E0,2.382438E0,3.2346754E0,2.6113148E0,3.3873746E0,2.0661075E0,3.557016E0,2.1346612E0],"categories":[],"categories_nodes":[],"categories_segments":[],"categories_sizes":[],"default_left":[1,1,1,1,1,1,1,1,1,1,1,1,1,1,1,0,0,0,0,0,0,0,0,0,0,0,0,0,0,0,0],"id":7,"left_children":[1,3,5,7,9,11,13,15,17,19,21,23,25,27,29,-1,-1,-1,-1,-1,-1,-1,-1,-1,-1,-1,-1,-1,-1,-1,-1],"loss_changes":[1.4389141E3,3.6124927E2,2.923672E2,6.25326E1,2.810962E1,6.732031E1,2.6164062E1,6.2683773E0,5.4565735E0,5.0932617E0,7.596466E0,1.7365234E1,2.9316406E0,7.6757812E0,1.3578125E1,0E0,0E0,0E0,0E0,0E0,0E0,0E0,0E0,0E0,0E0,0E0,0E0,0E0,0E0,0E0,0E0],"parents":[2147483647,0,0,1,1,2,2,3,3,4,4,5,5,6,6,7,7,8,8,9,9,10,10,11,11,12,12,13,13,14,14],"right_children":[2,4,6,8,10,12,14,16,18,20,22,24,26,28,30,-1,-1,-1,-1,-1,-1,-1,-1,-1,-1,-1,-1,-1,-1,-1,-1],"split_conditions":[3.55E1,3.15E1,3.85E1,2.75E1,1.5E0,3.75E1,3.95E1,2.55E1,2.95E1,3.25E1,3.35E1,1.5E0,1.5E0,1.5E0,1.5E0,-5.2149672E-2,1.0883108E-2,6.566327E-2,1.2120896E-1,1.9012137E-1,2.394088E-1,1.3678326E-1,1.9912182E-1,2.934623E-1,2.382438E-1,3.2346755E-1,2.611315E-1,3.3873746E-1,2.0661075E-1,3.557016E-1,2.1346612E-1],"split_indices":[3,3,3,3,2,3,3,3,3,3,3,2,2,2,2,0,0,0,0,0,0,0,0,0,0,0,0,0,0,0,0],"split_type":[0,0,0,0,0,0,0,0,0,0,0,0,0,0,0,0,0,0,0,0,0,0,0,0,0,0,0,0,0,0,0],"sum_hessian":[9.107E3,6.99E2,8.408E3,1.53E2,5.46E2,2.941E3,5.467E3,6.4E1,8.9E1,4.38E2,1.08E2,1.264E3,1.677E3,2.261E3,3.206E3,3.8E1,2.6E1,3.2E1,5.7E1,4.8E1,3.9E2,4.8E1,6E1,1.174E3,9E1,1.643E3,3.4E1,2.251E3,1E1,3.194E3,1.2E1],"tree_param":{"num_deleted":"0","num_feature":"4","num_nodes":"31","size_leaf_vector":"0"}},{"base_weights":[2.9016998E0,1.7072201E0,3.004748E0,2.3670542E-1,2.0475368E0,2.7868242E0,3.1225502E0,-4.1621694E-1,8.3960897E-1,2.1682022E0,1.541622E0,2.470915E0,2.841524E0,3.032157E0,3.1844864E0,-4.7812212E-1,4.2226952E-1,4.0384644E-1,9.8268354E-1,1.9048749E0,2.296642E0,1.3292536E0,2.0226097E0,2.8540711E0,2.4243326E0,3.0330966E0,4.9555194E-1,3.1895332E0,1.8366336E0],"categories":[],"categories_nodes":[],"categories_segments":[],"categories_sizes":[],"default_left":[1,1,1,1,1,1,1,1,1,1,1,0,1,1,1,0,0,0,0,0,0,0,0,0,0,0,0,0,0],"id":8,"left_children":[1,3,5,7,9,11,13,15,17,19,21,-1,23,25,27,-1,-1,-1,-1,-1,-1,-1,-1,-1,-1,-1,-1,-1,-1],"loss_changes":[1.0870391E3,3.533269E2,2.0096094E2,5.3098454E1,3.1697998E1,4.2660156E1,1.9976562E1,3.5758276E0,3.9674072E0,1.1217041E1,8.956146E0,0E0,5.873047E0,3.6757812E0,1.5373047E1,0E0,0E0,0E0,0E0,0E0,0E0,0E0,0E0,0E0,0E0,0E0,0E0,0E0,0E0],"parents":[2147483647,0,0,1,1,2,2,3,3,4,4,5,5,6,6,7,7,8,8,9,9,10,10,12,12,13,13,14,14],"right_children":[2,4,6,8,10,12,14,16,18,20,22,-1,24,26,28,-1,-1,-1,-1,-1,-1,-1,-1,-1,-1,-1,-1,-1,-1],"split_conditions":[3.55E1,3.05E1,3.85E1,2.75E1,1.5E0,3.65E1,3.95E1,3E0,2.85E1,3.35E1,3.45E1,2.4709152E-1,1.5E0,2.5E0,1.5E0,-4.7812212E-2,4.222695E-2,4.0384647E-2,9.826835E-2,1.9048749E-1,2.296642E-1,1.3292536E-1,2.0226097E-1,2.8540713E-1,2.4243326E-1,3.0330965E-1,4.9555194E-2,3.1895334E-1,1.8366335E-1],"split_indices":[3,3,3,3,2,3,3,2,3,3,3,0,2,2,2,0,0,0,0,0,0,0,0,0,0,0,0,0,0],"split_type":[0,0,0,0,0,0,0,0,0,0,0,0,0,0,0,0,0,0,0,0,0,0,0,0,0,0,0,0,0],"sum_hessian":[8.872E3,7.06E2,8.166E3,1.33E2,5.73E2,2.874E3,5.292E3,6.4E1,6.9E1,4.6E2,1.13E2,4.31E2,2.443E3,2.172E3,3.12E3,6E1,4E0,1.8E1,5.1E1,1.56E2,3.04E2,8.1E1,3.2E1,2.366E3,7.7E1,2.171E3,1E0,3.107E3,1.3E1],"tree_param":{"num_deleted":"0","num_feature":"4","num_nodes":"29","size_leaf_vector":"0"}},{"base_weights":[2.6027708E0,2.506292E0,2.6955447E0,2.4092686E0,2.5776098E0,2.6322336E0,2.7949188E0,2.5695763E0,2.6725454E0],"categories":[],"categories_nodes":[],"categories_segments":[],"categories_sizes":[],"default_left":[1,1,1,0,0,1,0,0,0],"id":9,"left_children":[1,3,5,-1,-1,7,-1,-1,-1],"loss_changes":[7.257422E1,2.3951172E1,2.0986328E1,0E0,0E0,1.2695312E-1,0E0,0E0,0E0],"parents":[2147483647,0,0,1,1,2,2,5,5],"right_children":[2,4,6,-1,-1,8,-1,-1,-1],"split_conditions":[5E-1,2.55E1,2.95E1,2.4092686E-1,2.5776097E-1,2.25E1,2.7949187E-1,2.5695762E-1,2.6725456E-1],"split_indices":[0,1,1,0,0,1,0,0,0],"split_type":[0,0,0,0,0,0,0,0,0],"sum_hessian":[8.862E3,4.358E3,4.504E3,1.861E3,2.497E3,2.768E3,1.736E3,1.109E3,1.659E3],"tree_param":{"num_deleted":"0","num_feature":"4","num_nodes":"9","size_leaf_vector":"0"}},{"base_weights":[2.3434675E0,2.2507553E0,2.4306896E0,2.1612563E0,2.289825E0,2.3254523E0,2.5009463E0,2.2908905E0,9.1586083E-1,6.7455685E-1,2.3286555E0],"categories":[],"categories_nodes":[],"categories_segments":[],"categories_sizes":[],"default_left":[1,1,1,0,1,1,0,0,0,0,0],"id":10,"left_children":[1,3,5,-1,7,9,-1,-1,-1,-1,-1],"loss_changes":[6.688672E1,1.0265625E1,2.818164E1,0E0,2.3115234E0,8.238281E0,0E0,0E0,0E0,0E0,0E0],"parents":[2147483647,0,0,1,1,2,2,4,4,5,5],"right_children":[2,4,6,-1,8,10,-1,-1,-1,-1,-1],"split_conditions":[5E-1,2.35E1,2.55E1,2.1612564E-1,4.55E1,1.45E1,2.5009462E-1,2.2908905E-1,9.158608E-2,6.745569E-2,2.3286556E-1],"split_indices":[0,1,1,0,1,1,0,0,0,0,0],"split_type":[0,0,0,0,0,0,0,0,0,0,0],"sum_hessian":[8.947E3,4.35E3,4.597E3,1.339E3,3.011E3,1.854E3,2.743E3,3.008E3,3E0,4E0,1.85E3],"tree_param":{"num_deleted":"0","num_feature":"4","num_nodes":"11","size_leaf_vector":"0"}},{"base_weights":[2.1159253E0,2.030486E0,2.19712E0,1.9170486E0,2.0952942E0,2.129639E0,2.2654195E0,2.0957937E0,3.5403836E-1,2.265941E0,5.428536E-1],"categories":[],"categories_nodes":[],"categories_segments":[],"categories_sizes":[],"default_left":[1,1,1,0,1,0,1,0,0,0,0],"id":11,"left_children":[1,3,5,-1,7,-1,9,-1,-1,-1,-1],"loss_changes":[5.773828E1,2.8199219E1,1.630664E1,0E0,1.6748047E0,0E0,8.027344E-1,0E0,0E0,0E0,0E0],"parents":[2147483647,0,0,1,1,2,2,4,4,6,6],"right_children":[2,4,6,-1,8,-1,10,-1,-1,-1,-1],"split_conditions":[5E-1,2.45E1,2.75E1,1.9170485E-1,4.8E1,2.129639E-1,4.65E1,2.0957938E-1,3.5403837E-2,2.2659409E-1,5.428536E-2],"split_indices":[0,1,1,0,1,0,1,0,0,0,0],"split_type":[0,0,0,0,0,0,0,0,0,0,0],"sum_hessian":[8.965E3,4.381E3,4.584E3,1.604E3,2.777E3,2.322E3,2.262E3,2.776E3,1E0,2.261E3,1E0],"tree_param":{"num_deleted":"0","num_feature":"4","num_nodes":"11","size_leaf_vector":"0"}},{"base_weights":[1.90905E0,1.8354743E0,1.9783415E0,1.7277669E0,1.8718337E0,1.819354E0,2.0044203E0,9.474319E-1,1.7297485E0,1.8723497E0,6.958673E-1,1.9537002E0,2.0420594E0,1.9753032E0,1.8181118E0],"categories":[],"categories_nodes":[],"categories_segments":[],"categories_sizes":[],"default_left":[1,1,1,1,1,0,1,0,0,0,0,1,0,0,0],"id":12,"left_children":[1,3,5,7,9,-1,11,-1,-1,-1,-1,13,-1,-1,-1],"loss_changes":[4.153711E1,1.3649414E1,1.521875E1,6.347656E-2,6.455078E-1,0E0,3.453125E0,0E0,0E0,0E0,0E0,1.3408203E0,0E0,0E0,0E0],"parents":[2147483647,0,0,1,1,2,2,3,3,4,4,6,6,11,11],"right_children":[2,4,6,8,10,-1,12,-1,-1,-1,-1,14,-1,-1,-1],"split_conditions":[5E-1,2.25E1,2.05E1,1.45E1,4.8E1,1.8193541E-1,2.75E1,9.474319E-2,1.7297485E-1,1.8723498E-1,6.958673E-2,2.65E1,2.0420595E-1,1.9753031E-1,1.8181118E-1],"split_indices":[0,1,1,1,1,0,1,0,0,0,0,1,0,0,0],"split_type":[0,0,0,0,0,0,0,0,0,0,0,0,0,0,0],"sum_hessian":[8.859E3,4.31E3,4.549E3,1.1E3,3.21E3,6.51E2,3.898E3,4E0,1.096E3,3.208E3,2E0,1.683E3,2.215E3,1.44E3,2.43E2],"tree_param":{"num_deleted":"0","num_feature":"4","num_nodes":"15","size_leaf_vector":"0"}},{"base_weights":[1.715124E0,3.3431235E-1,1.7921312E0,-1.0039041E0,6.377458E-1,1.4007571E0,1.8705513E0,-1.4622111E0,-7.770762E-1,2.4167897E-1,8.4182084E-1,1.2411653E0,1.519558E0,1.7011877E0,1.9226376E0,-9.510492E-1,-6.3852483E-1,4.5472103E-1,4.3445095E-2,6.9858766E-1,9.374268E-1,1.1498239E0,1.2882029E0,1.3895186E0,1.6228048E0,1.8265362E0,2.0173888E0],"categories":[],"categories_nodes":[],"categories_segments":[],"categories_sizes":[],"default_left":[1,1,1,1,1,1,1,0,1,1,1,1,1,0,1,0,0,0,0,0,0,0,0,0,0,0,0],"id":13,"left_children":[1,3,5,7,9,11,13,-1,15,17,19,21,23,-1,25,-1,-1,-1,-1,-1,-1,-1,-1,-1,-1,-1,-1],"loss_changes":[9.510762E2,1.9311249E2,2.5755078E2,8.011948E0,3.1076736E1,2.5017578E1,5.9E1,0E0,8.630867E-1,5.5971212E0,2.837082E0,1.1439819E0,8.606689E0,0E0,4.5404297E1,0E0,0E0,0E0,0E0,0E0,0E0,0E0,0E0,0E0,0E0,0E0,0E0],"parents":[2147483647,0,0,1,1,2,2,3,3,4,4,5,5,6,6,8,8,9,9,10,10,11,11,12,12,14,14],"right_children":[2,4,6,8,10,12,14,-1,16,18,20,22,24,-1,26,-1,-1,-1,-1,-1,-1,-1,-1,-1,-1,-1,-1],"split_conditions":[3.45E1,2.85E1,3.75E1,2.45E1,3.25E1,3.65E1,3.85E1,-1.4622112E-1,2.65E1,5E-1,3.35E1,3.55E1,5E-1,1.7011878E-1,5E-1,-9.5104925E-2,-6.385248E-2,4.5472104E-2,4.3445094E-3,6.985877E-2,9.374268E-2,1.1498239E-1,1.2882029E-1,1.3895187E-1,1.6228049E-1,1.8265362E-1,2.0173888E-1],"split_indices":[3,3,3,3,3,3,3,0,3,0,3,3,0,0,0,0,0,0,0,0,0,0,0,0,0,0,0],"split_type":[0,0,0,0,0,0,0,0,0,0,0,0,0,0,0,0,0,0,0,0,0,0,0,0,0,0,0],"sum_hessian":[8.949E3,4.73E2,8.476E3,8.7E1,3.86E2,1.418E3,7.058E3,2.7E1,6E1,1.32E2,2.54E2,6.1E2,8.08E2,1.668E3,5.39E3,2.4E1,3.6E1,6.3E1,6.9E1,1.05E2,1.49E2,2.16E2,3.94E2,3.64E2,4.44E2,2.686E3,2.704E3],"tree_param":{"num_deleted":"0","num_feature":"4","num_nodes":"27","size_leaf_vector":"0"}},{"base_weights":[1.5447918E0,8.121994E-1,1.648944E0,-8.8255715E-1,9.4203407E-1,1.4945803E0,1.7194316E0,-1.1824179E0,-4.8321578E-1,5.4423267E-1,1.0668862E0,1.385853E0,1.5475109E0,1.6487559E0,1.7895726E0,-6.9791406E-1,-3.3152053E-1,3.823328E-1,5.7983345E-1,8.454735E-1,1.1171128E0,1.2454895E0,1.4942428E0,1.6611326E0,1.4021201E0,1.747303E0,1.9070617E0],"categories":[],"categories_nodes":[],"categories_segments":[],"categories_sizes":[],"default_left":[1,1,1,1,1,1,1,0,1,1,1,1,0,1,1,0,0,0,0,0,0,0,0,0,0,0,0],"id":14,"left_children":[1,3,5,7,9,11,13,-1,15,17,19,21,-1,23,25,-1,-1,-1,-1,-1,-1,-1,-1,-1,-1,-1,-1],"loss_changes":[6.82166E2,2.4661395E2,8.275586E1,9.008381E0,5.0973022E1,1.2047363E1,2.3705078E1,0E0,9.411001E-1,1.2192535E0,7.829773E0,1.0568848E1,0E0,5.885254E0,1.0011719E1,0E0,0E0,0E0,0E0,0E0,0E0,0E0,0E0,0E0,0E0,0E0,0E0],"parents":[2147483647,0,0,1,1,2,2,3,3,4,4,5,5,6,6,8,8,9,9,10,10,11,11,13,13,14,14],"right_children":[2,4,6,8,10,12,14,-1,16,18,20,22,-1,24,26,-1,-1,-1,-1,-1,-1,-1,-1,-1,-1,-1,-1],"split_conditions":[3.65E1,2.85E1,3.85E1,2.65E1,3.35E1,3.75E1,5E-1,-1.1824179E-1,2.75E1,3.05E1,3.45E1,5E-1,1.5475109E-1,4.25E1,4.05E1,-6.979141E-2,-3.3152055E-2,3.823328E-2,5.7983346E-2,8.4547356E-2,1.1171128E-1,1.2454895E-1,1.4942428E-1,1.6611326E-1,1.4021201E-1,1.747303E-1,1.9070618E-1],"split_indices":[3,3,3,3,3,3,0,0,3,3,3,0,0,3,3,0,0,0,0,0,0,0,0,0,0,0,0],"split_type":[0,0,0,0,0,0,0,0,0,0,0,0,0,0,0,0,0,0,0,0,0,0,0,0,0,0,0],"sum_hessian":[8.957E3,1.116E3,7.841E3,7.9E1,1.037E3,2.465E3,5.376E3,4.4E1,3.5E1,2.49E2,7.88E2,8.16E2,1.649E3,2.69E3,2.686E3,1.3E1,2.2E1,4.7E1,2.02E2,1.49E2,6.39E2,3.61E2,4.55E2,2.556E3,1.34E2,1.987E3,6.99E2],"tree_param":{"num_deleted":"0","num_feature":"4","num_nodes":"27","size_leaf_vector":"0"}},{"base_weights":[1.3961827E0,2.9576787E-1,1.4580346E0,-4.374754E-1,6.2149817E-1,1.275495E0,1.5641857E0,-6.8854284E-1,-6.1951924E-2,7.757928E-1,1.13061905E-1,1.1556455E0,1.377157E0,1.4910356E0,1.6164268E0,-1.2212303E0,-5.883655E-1,3.659864E-2,-3.6004353E-1,4.1446275E-1,8.189162E-1,-1.0676695E-1,5.322485E-1,1.1877933E0,7.5790495E-1,1.3869681E0,9.5159674E-1,1.6207201E0,4.719067E-1],"categories":[],"categories_nodes":[],"categories_segments":[],"categories_sizes":[],"default_left":[1,1,1,1,1,1,1,1,1,1,1,1,1,0,1,0,0,0,0,0,0,0,0,0,0,0,0,0,0],"id":15,"left_children":[1,3,5,7,9,11,13,15,17,19,21,23,25,-1,27,-1,-1,-1,-1,-1,-1,-1,-1,-1,-1,-1,-1,-1,-1],"loss_changes":[6.067578E2,1.1395952E2,1.6166016E2,1.3816753E1,2.5800438E1,3.6313477E1,1.7981445E1,3.977436E0,1.7758027E0,3.6027832E0,7.244472E0,1.7435547E1,5.6862793E0,0E0,1.4473145E1,0E0,0E0,0E0,0E0,0E0,0E0,0E0,0E0,0E0,0E0,0E0,0E0,0E0,0E0],"parents":[2147483647,0,0,1,1,2,2,3,3,4,4,5,5,6,6,7,7,8,8,9,9,10,10,11,11,12,12,14,14],"right_children":[2,4,6,8,10,12,14,16,18,20,22,24,26,-1,28,-1,-1,-1,-1,-1,-1,-1,-1,-1,-1,-1,-1,-1,-1],"split_conditions":[3.45E1,3.05E1,3.85E1,2.85E1,1.5E0,3.75E1,3.95E1,2.35E1,1.5E0,3.15E1,3.35E1,1.5E0,1.5E0,1.4910357E-1,1.5E0,-1.22123025E-1,-5.883655E-2,3.6598642E-3,-3.6004353E-2,4.1446276E-2,8.189162E-2,-1.0676695E-2,5.322485E-2,1.18779324E-1,7.5790495E-2,1.3869682E-1,9.515967E-2,1.6207202E-1,4.719067E-2],"split_indices":[3,3,3,3,2,3,3,3,2,3,3,2,2,0,2,0,0,0,0,0,0,0,0,0,0,0,0,0,0],"split_type":[0,0,0,0,0,0,0,0,0,0,0,0,0,0,0,0,0,0,0,0,0,0,0,0,0,0,0,0,0],"sum_hessian":[8.92E3,4.75E2,8.445E3,1.46E2,3.29E2,3.11E3,5.335E3,8.7E1,5.9E1,2.52E2,7.7E1,1.433E3,1.677E3,2.235E3,3.1E3,1.2E1,7.5E1,4.5E1,1.4E1,2.8E1,2.24E2,5.1E1,2.6E1,1.324E3,1.09E2,1.637E3,4E1,3.088E3,1.2E1],"tree_param":{"num_deleted":"0","num_feature":"4","num_nodes":"29","size_leaf_vector":"0"}},{"base_weights":[1.2483478E0,1.2734483E0,4.0550658E-1,1.1548831E0,1.3139807E0,4.3136525E-1,-2.2262864E-2,1.0795364E0,1.1773636E0,1.2703704E0,1.3465674E0,2.114808E-1,4.7623685E-1,-7.3160493E-1,7.380027E-2,7.094422E-1,1.0867405E0,1.2466933E0,1.1563791E0,3.9465135E-1,5.648511E-2,4.3000466E-1,5.953469E-1,1.6142596E-1,-1.337363E-1],"categories":[],"categories_nodes":[],"categories_segments":[],"categories_sizes":[],"default_left":[1,1,1,1,1,1,1,1,1,0,0,1,1,0,1,0,0,0,0,0,0,0,0,0,0],"id":16,"left_children":[1,3,5,7,9,11,13,15,17,-1,-1,19,21,-1,23,-1,-1,-1,-1,-1,-1,-1,-1,-1,-1],"loss_changes":[1.9153613E2,4.0844727E1,2.9298515E0,2.546875E0,7.6152344E0,2.35606E0,1.1442586E0,6.4208984E-1,1.0678711E0,0E0,0E0,1.2268965E0,8.783798E-1,0E0,2.9437155E-1,0E0,0E0,0E0,0E0,0E0,0E0,0E0,0E0,0E0,0E0],"parents":[2147483647,0,0,1,1,2,2,3,3,4,4,5,5,6,6,7,7,8,8,11,11,12,12,14,14],"right_children":[2,4,6,8,10,12,14,16,18,-1,-1,20,22,-1,24,-1,-1,-1,-1,-1,-1,-1,-1,-1,-1],"split_conditions":[1.5E0,2.25E1,2.5E0,1.85E1,2.85E1,2.25E1,2.25E1,1.45E1,1.95E1,1.2703703E-1,1.3465674E-1,2.05E1,3.45E1,-7.316049E-2,3.5E0,7.094422E-2,1.0867405E-1,1.2466933E-1,1.1563791E-1,3.9465137E-2,5.648511E-3,4.3000467E-2,5.9534695E-2,1.6142597E-2,-1.337363E-2],"split_indices":[2,1,2,1,1,1,1,1,1,0,0,1,1,0,2,0,0,0,0,0,0,0,0,0,0],"split_type":[0,0,0,0,0,0,0,0,0,0,0,0,0,0,0,0,0,0,0,0,0,0,0,0,0],"sum_hessian":[9.077E3,8.814E3,2.63E2,2.253E3,6.561E3,2.48E2,1.5E1,5.29E2,1.724E3,2.823E3,3.738E3,4.3E1,2.05E2,1E0,1.4E1,1.2E1,5.17E2,3.87E2,1.337E3,1.9E1,2.4E1,1.51E2,5.4E1,1E1,4E0],"tree_param":{"num_deleted":"0","num_feature":"4","num_nodes":"25","size_leaf_vector":"0"}},{"base_weights":[1.1324996E0,5.308883E-1,1.2169533E0,-4.651489E-1,7.036892E-1,1.0858779E0,1.2798564E0,-8.160441E-1,-2.4041907E-1,6.1841816E-1,8.028286E-1,9.954677E-1,1.1289448E0,1.2003375E0,1.359762E0,-1.3228396E0,-6.476846E-1,-3.7772548E-1,-2.692111E-2,5.7443726E-1,6.750389E-1,7.582294E-1,8.3655894E-1,8.822791E-1,1.0856768E0,1.0908154E0,1.1655574E0,1.1509017E0,1.232702E0,1.280956E0,1.4145992E0],"categories":[],"categories_nodes":[],"categories_segments":[],"categories_sizes":[],"default_left":[1,1,1,1,1,1,1,1,1,1,1,1,1,1,1,0,0,0,0,0,0,0,0,0,0,0,0,0,0,0,0],"id":17,"left_children":[1,3,5,7,9,11,13,15,17,19,21,23,25,27,29,-1,-1,-1,-1,-1,-1,-1,-1,-1,-1,-1,-1,-1,-1,-1,-1],"loss_changes":[4.5759375E2,1.9172046E2,6.38125E1,1.2815151E1,7.5176086E0,8.886963E0,3.2285156E1,4.6039467E0,2.9799242E0,8.922119E-1,2.0111084E-2,7.598572E0,1.1491699E0,2.8754883E0,9.661621E0,0E0,0E0,0E0,0E0,0E0,0E0,0E0,0E0,0E0,0E0,0E0,0E0,0E0,0E0,0E0,0E0],"parents":[2147483647,0,0,1,1,2,2,3,3,4,4,5,5,6,6,7,7,8,8,9,9,10,10,11,11,12,12,13,13,14,14],"right_children":[2,4,6,8,10,12,14,16,18,20,22,24,26,28,30,-1,-1,-1,-1,-1,-1,-1,-1,-1,-1,-1,-1,-1,-1,-1,-1],"split_conditions":[3.65E1,3.15E1,3.85E1,2.75E1,3.55E1,3.75E1,5E-1,2.35E1,3.05E1,3.45E1,5E-1,5E-1,5E-1,3.95E1,3.95E1,-1.3228397E-1,-6.4768456E-2,-3.7772547E-2,-2.692111E-3,5.7443727E-2,6.750389E-2,7.582294E-2,8.3655894E-2,8.822791E-2,1.0856768E-1,1.09081544E-1,1.1655574E-1,1.1509017E-1,1.23270206E-1,1.2809561E-1,1.4145993E-1],"split_indices":[3,3,3,3,3,3,0,3,3,3,0,0,0,3,3,0,0,0,0,0,0,0,0,0,0,0,0,0,0,0,0],"split_type":[0,0,0,0,0,0,0,0,0,0,0,0,0,0,0,0,0,0,0,0,0,0,0,0,0,0,0,0,0,0,0],"sum_hessian":[9.018E3,1.111E3,7.907E3,1.64E2,9.47E2,2.57E3,5.337E3,6.3E1,1.01E2,5.13E2,4.34E2,8.37E2,1.733E3,2.683E3,2.654E3,1.4E1,4.9E1,6.1E1,4E1,2.95E2,2.18E2,1.97E2,2.37E2,3.76E2,4.61E2,8.64E2,8.69E2,1.076E3,1.607E3,1.099E3,1.555E3],"tree_param":{"num_deleted":"0","num_feature":"4","num_nodes":"31","size_leaf_vector":"0"}},{"base_weights":[1.0117623E0,4.5733315E-1,1.0900995E0,-2.1271412E-1,6.131694E-1,9.6441674E-1,1.1472272E0,-8.469286E-1,-2.9660497E-2,6.618557E-1,3.088432E-1,8.817104E-1,1.0037892E0,1.0897613E0,1.1872284E0,-1.1123872E0,-6.8773276E-1,-3.3699343E-1,3.068479E-2,5.530837E-1,7.015681E-1,1.0485192E-1,3.4634295E-1,8.9316326E-1,6.417774E-1,1.008225E0,8.183604E-1,1.0927136E0,5.46295E-1,1.1901319E0,2.473546E-1],"categories":[],"categories_nodes":[],"categories_segments":[],"categories_sizes":[],"default_left":[1,1,1,1,1,1,1,1,1,1,1,1,1,1,1,0,0,0,0,0,0,0,0,0,0,0,0,0,0,0,0],"id":18,"left_children":[1,3,5,7,9,11,13,15,17,19,21,23,25,27,29,-1,-1,-1,-1,-1,-1,-1,-1,-1,-1,-1,-1,-1,-1,-1,-1],"loss_changes":[3.8796094E2,1.1592955E2,5.5155273E1,2.4354883E1,1.3130493E1,7.109131E0,1.1078125E1,1.2211876E0,3.0518997E0,2.9596558E0,9.2753696E-1,1.6251221E0,5.371094E-1,2.9667969E0,8.333496E0,0E0,0E0,0E0,0E0,0E0,0E0,0E0,0E0,0E0,0E0,0E0,0E0,0E0,0E0,0E0,0E0],"parents":[2147483647,0,0,1,1,2,2,3,3,4,4,5,5,6,6,7,7,8,8,9,9,10,10,11,11,12,12,13,13,14,14],"right_children":[2,4,6,8,10,12,14,16,18,20,22,24,26,28,30,-1,-1,-1,-1,-1,-1,-1,-1,-1,-1,-1,-1,-1,-1,-1,-1],"split_conditions":[3.65E1,3.25E1,3.85E1,2.65E1,1.5E0,3.75E1,3.95E1,2.35E1,2.85E1,3.45E1,3.35E1,1.5E0,1.5E0,1.5E0,1.5E0,-1.1123872E-1,-6.877328E-2,-3.3699345E-2,3.068479E-3,5.530837E-2,7.015681E-2,1.0485192E-2,3.4634296E-2,8.931633E-2,6.4177744E-2,1.008225E-1,8.183604E-2,1.0927136E-1,5.46295E-2,1.1901319E-1,2.473546E-2],"split_indices":[3,3,3,3,2,3,3,3,3,3,3,2,2,2,2,0,0,0,0,0,0,0,0,0,0,0,0,0,0,0,0],"split_type":[0,0,0,0,0,0,0,0,0,0,0,0,0,0,0,0,0,0,0,0,0,0,0,0,0,0,0,0,0,0,0],"sum_hessian":[8.943E3,1.108E3,7.835E3,2.09E2,8.99E2,2.454E3,5.381E3,4.6E1,1.63E2,7.74E2,1.25E2,7.99E2,1.655E3,2.22E3,3.161E3,1.5E1,3.1E1,2.6E1,1.37E2,2.11E2,5.63E2,2E1,1.05E2,7.6E2,3.9E1,1.612E3,4.3E1,2.207E3,1.3E1,3.151E3,1E1],"tree_param":{"num_deleted":"0","num_feature":"4","num_nodes":"31","size_leaf_vector":"0"}},{"base_weights":[9.0969145E-1,8.5996354E-1,9.5632637E-1,7.920101E-1,8.7194645E-1,8.72501E-1,1.012674E0,8.606105E-1,9.2806756E-1,8.1989926E-1,9.011951E-1,9.79951E-1,1.0647463E0,9.206922E-1,8.555794E-1,9.548923E-1,8.368273E-1,3.8579217E-1,8.219303E-1,1.0390289E0,9.69038E-1,1.0669699E0,2.1541715E-1],"categories":[],"categories_nodes":[],"categories_segments":[],"categories_sizes":[],"default_left":[1,1,1,0,1,1,1,1,1,1,0,1,1,0,0,0,0,0,0,0,0,0,0],"id":19,"left_children":[1,3,5,-1,7,9,11,13,15,17,-1,19,21,-1,-1,-1,-1,-1,-1,-1,-1,-1,-1],"loss_changes":[1.997461E1,2.8515625E0,2.0933594E1,0E0,1.5476074E0,2.074585E0,3.652832E0,1.4404297E-1,6.8652344E-1,2.727356E-1,0E0,9.240723E-2,1.756958E0,0E0,0E0,0E0,0E0,0E0,0E0,0E0,0E0,0E0,0E0],"parents":[2147483647,0,0,1,1,2,2,4,4,5,5,6,6,7,7,8,8,9,9,11,11,12,12],"right_children":[2,4,6,-1,8,10,12,14,16,18,-1,20,22,-1,-1,-1,-1,-1,-1,-1,-1,-1,-1],"split_conditions":[5E-1,2.05E1,2.55E1,7.920101E-2,3.45E1,2.05E1,3.25E1,2.15E1,3.85E1,1.45E1,9.011951E-2,2.65E1,4.55E1,9.206922E-2,8.555794E-2,9.548923E-2,8.368273E-2,3.8579218E-2,8.219303E-2,1.0390289E-1,9.69038E-2,1.06696986E-1,2.1541715E-2],"split_indices":[0,1,1,0,1,1,1,1,1,1,0,1,1,0,0,0,0,0,0,0,0,0,0],"split_type":[0,0,0,0,0,0,0,0,0,0,0,0,0,0,0,0,0,0,0,0,0,0,0],"sum_hessian":[8.967E3,4.349E3,4.618E3,6.62E2,3.687E3,1.863E3,2.755E3,3.081E3,6.06E2,6.68E2,1.195E3,1.704E3,1.051E3,2.24E2,2.857E3,4.61E2,1.45E2,4E0,6.64E2,2.51E2,1.453E3,1.048E3,3E0],"tree_param":{"num_deleted":"0","num_feature":"4","num_nodes":"23","size_leaf_vector":"0"}},{"base_weights":[8.141606E-1,2.911547E-1,8.8881993E-1,-5.3563684E-1,4.332255E-1,7.746964E-1,9.4134575E-1,1.9364886E-1,-6.7868984E-1,2.8190967E-1,5.069275E-1,7.085573E-1,8.2592046E-1,8.822126E-1,9.846141E-1,-1.0335039E0,8.293267E-1,-7.239113E-1,6.7802864E-1,3.3685732E-1,-7.733345E-2,1.5876124E0,4.9433511E-1,7.370467E-1,6.8817604E-1,7.889345E-1,8.584051E-1,8.447045E-1,9.6975785E-1,9.860493E-1,-8.314497E-1],"categories":[],"categories_nodes":[],"categories_segments":[],"categories_sizes":[],"default_left":[1,1,1,1,1,1,1,1,1,1,1,1,1,1,1,0,0,0,0,0,0,0,0,0,0,0,0,0,0,0,0],"id":20,"left_children":[1,3,5,7,9,11,13,15,17,19,21,23,25,27,29,-1,-1,-1,-1,-1,-1,-1,-1,-1,-1,-1,-1,-1,-1,-1,-1],"loss_changes":[3.5218213E2,1.3284769E2,4.6614746E1,1.7449623E1,1.060788E1,7.867676E0,1.2958008E1,2.2699179E1,9.018875E0,6.3032303E0,8.019821E0,1.2915039E-1,1.0048218E0,6.710327E0,8.931152E0,0E0,0E0,0E0,0E0,0E0,0E0,0E0,0E0,0E0,0E0,0E0,0E0,0E0,0E0,0E0,0E0],"parents":[2147483647,0,0,1,1,2,2,3,3,4,4,5,5,6,6,7,7,8,8,9,9,10,10,11,11,12,12,13,13,14,14],"right_children":[2,4,6,8,10,12,14,16,18,20,22,24,26,28,30,-1,-1,-1,-1,-1,-1,-1,-1,-1,-1,-1,-1,-1,-1,-1,-1],"split_conditions":[3.65E1,3.15E1,3.85E1,2.15E1,3.45E1,2.65E1,2.55E1,2.85E1,3.95E1,3.45E1,1.65E1,2.15E1,3.15E1,4.05E1,4.65E1,-1.0335039E-1,8.293267E-2,-7.239113E-2,6.780287E-2,3.3685733E-2,-7.733345E-3,1.5876125E-1,4.943351E-2,7.3704675E-2,6.881761E-2,7.889345E-2,8.5840516E-2,8.447045E-2,9.697579E-2,9.860493E-2,-8.314497E-2],"split_indices":[3,3,3,1,3,1,1,3,1,1,1,1,1,3,3,0,0,0,0,0,0,0,0,0,0,0,0,0,0,0,0],"split_type":[0,0,0,0,0,0,0,0,0,0,0,0,0,0,0,0,0,0,0,0,0,0,0,0,0,0,0,0,0,0,0],"sum_hessian":[9.025E3,1.128E3,7.897E3,1.65E2,9.63E2,2.494E3,5.403E3,2.7E1,1.38E2,3.17E2,6.46E2,1.095E3,1.399E3,2.292E3,3.111E3,9E0,1.8E1,1.34E2,4E0,2.75E2,4.2E1,6E0,6.4E2,4.42E2,6.53E2,6.66E2,7.33E2,1.612E3,6.8E2,3.109E3,2E0],"tree_param":{"num_deleted":"0","num_feature":"4","num_nodes":"31","size_leaf_vector":"0"}},{"base_weights":[7.4213076E-1,2.764943E-1,8.0988705E-1,-4.9720353E-1,3.771382E-1,7.574885E-1,8.885191E-1,-7.291837E-1,-2.1523999E-1,1.1537857E-1,4.443045E-1,6.5629727E-1,7.8730917E-1,7.568443E-1,9.256372E-1,5.800372E-1,-8.1472665E-1,4.218399E-1,-5.134866E-1,2.9082355E-1,-3.44347E-3,4.76144E-1,2.7376452E-1,6.234352E-1,6.9802785E-1,7.4840945E-1,8.2474744E-1,8.0385005E-1,3.860265E-1,9.060268E-1,9.844617E-1],"categories":[],"categories_nodes":[],"categories_segments":[],"categories_sizes":[],"default_left":[1,1,1,1,1,1,1,1,1,1,1,1,1,1,1,0,0,0,0,0,0,0,0,0,0,0,0,0,0,0,0],"id":21,"left_children":[1,3,5,7,9,11,13,15,17,19,21,23,25,27,29,-1,-1,-1,-1,-1,-1,-1,-1,-1,-1,-1,-1,-1,-1,-1,-1],"loss_changes":[2.832827E2,8.919059E1,3.1645508E1,8.477165E0,1.7741135E1,1.3708252E1,1.4602295E1,8.536182E0,1.1807032E1,4.337121E0,4.2407227E0,1.0445251E0,4.6779785E0,1.178653E1,1.9204102E0,0E0,0E0,0E0,0E0,0E0,0E0,0E0,0E0,0E0,0E0,0E0,0E0,0E0,0E0,0E0,0E0],"parents":[2147483647,0,0,1,1,2,2,3,3,4,4,5,5,6,6,7,7,8,8,9,9,10,10,11,11,12,12,13,13,14,14],"right_children":[2,4,6,8,10,12,14,16,18,20,22,24,26,28,30,-1,-1,-1,-1,-1,-1,-1,-1,-1,-1,-1,-1,-1,-1,-1,-1],"split_conditions":[3.65E1,3.05E1,3.95E1,2.85E1,3.35E1,2.25E1,2.15E1,1.75E1,2.55E1,2.45E1,3.45E1,2.05E1,2.95E1,4.25E1,3.25E1,5.800372E-2,-8.1472665E-2,4.218399E-2,-5.1348664E-2,2.9082356E-2,-3.44347E-4,4.76144E-2,2.7376452E-2,6.234352E-2,6.980278E-2,7.484095E-2,8.2474746E-2,8.038501E-2,3.860265E-2,9.060268E-2,9.8446175E-2],"split_indices":[3,3,3,3,3,1,1,1,1,1,1,1,1,3,1,0,0,0,0,0,0,0,0,0,0,0,0,0,0,0,0],"split_type":[0,0,0,0,0,0,0,0,0,0,0,0,0,0,0,0,0,0,0,0,0,0,0,0,0,0,0,0,0,0,0],"sum_hessian":[8.985E3,1.142E3,7.843E3,1.31E2,1.011E3,4.713E3,3.13E3,7.1E1,6E1,2.07E2,8.04E2,1.078E3,3.635E3,6.93E2,2.437E3,4E0,6.7E1,1.9E1,4.1E1,8.3E1,1.24E2,6.76E2,1.28E2,6.12E2,4.66E2,1.793E3,1.842E3,6.14E2,7.9E1,1.84E3,5.97E2],"tree_param":{"num_deleted":"0","num_feature":"4","num_nodes":"31","size_leaf_vector":"0"}},{"base_weights":[6.627881E-1,6.800926E-1,1.3065574E-1,6.2359977E-1,6.9931847E-1,9.987155E-2,6.4004886E-1,3.9385796E-2,6.256977E-1,6.94998E-1,8.3498293E-1,-4.223948E-2,1.6024786E-1,7.468707E-1,-7.18027E-2,8.328152E-2,3.557682E-3,9.1640216E-1,6.20596E-1,6.809213E-1,7.103518E-1,9.7373646E-1,-8.028617E-2,2.9862854E-1,1.2109447E-1,4.4868684E-1,1.0696679E0,-2.6175368E-1,1.5404963E-1],"categories":[],"categories_nodes":[],"categories_segments":[],"categories_sizes":[],"default_left":[1,1,1,1,1,1,1,1,1,1,0,1,1,1,1,0,0,0,0,0,0,0,0,0,0,0,0,0,0],"id":22,"left_children":[1,3,5,7,9,11,13,15,17,19,-1,21,23,25,27,-1,-1,-1,-1,-1,-1,-1,-1,-1,-1,-1,-1,-1,-1],"loss_changes":[8.258301E1,9.0078125E0,4.389552E0,2.692627E0,3.2172852E0,2.3148265E0,1.2702875E0,1.3858018E-2,2.7073975E0,8.7475586E-1,0E0,3.2091935E0,9.878535E-1,8.675952E-1,1.6902567E-1,0E0,0E0,0E0,0E0,0E0,0E0,0E0,0E0,0E0,0E0,0E0,0E0,0E0,0E0],"parents":[2147483647,0,0,1,1,2,2,3,3,4,4,5,5,6,6,7,7,8,8,9,9,11,11,12,12,13,13,14,14],"right_children":[2,4,6,8,10,12,14,16,18,20,-1,22,24,26,28,-1,-1,-1,-1,-1,-1,-1,-1,-1,-1,-1,-1,-1,-1],"split_conditions":[1.5E0,2.25E1,3.95E1,1.45E1,3.95E1,2.55E1,2.5E0,1.35E1,1.55E1,2.95E1,8.349829E-2,1.65E1,2.85E1,4.15E1,4.45E1,8.328152E-3,3.5576822E-4,9.164022E-2,6.20596E-2,6.809213E-2,7.1035184E-2,9.737365E-2,-8.028617E-3,2.9862855E-2,1.2109447E-2,4.4868685E-2,1.0696679E-1,-2.6175369E-2,1.5404964E-2],"split_indices":[2,1,1,1,1,1,2,1,1,1,0,1,1,1,1,0,0,0,0,0,0,0,0,0,0,0,0,0,0],"split_type":[0,0,0,0,0,0,0,0,0,0,0,0,0,0,0,0,0,0,0,0,0,0,0,0,0,0,0,0,0],"sum_hessian":[8.977E3,8.694E3,2.83E2,2.216E3,6.478E3,2.68E2,1.5E1,8E0,2.208E3,6.284E3,1.94E2,8E1,1.88E2,1.3E1,2E0,3E0,5E0,3.5E1,2.173E3,3.302E3,2.982E3,2E0,7.8E1,4E1,1.48E2,8E0,5E0,1E0,1E0],"tree_param":{"num_deleted":"0","num_feature":"4","num_nodes":"29","size_leaf_vector":"0"}},{"base_weights":[5.965207E-1,6.140395E-1,8.126303E-2,5.6793237E-1,6.5979075E-1,9.862149E-2,-1.3783343E-1,7.26765E-2,1.2135916E-1,-1.7048629E-1,5.1725954E-2,-2.9168144E-1,-3.4159555E-3,1.9345796E-1,-1.8673503E-1],"categories":[],"categories_nodes":[],"categories_segments":[],"categories_sizes":[],"default_left":[1,1,1,0,0,1,1,0,0,1,1,0,0,0,0],"id":23,"left_children":[1,3,5,-1,-1,7,9,-1,-1,11,13,-1,-1,-1,-1],"loss_changes":[8.034155E1,1.779419E1,1.1317273E0,0E0,0E0,1.522305E-1,1.4499098E-1,0E0,0E0,3.8371778E-1,1.713156E-1,0E0,0E0,0E0,0E0],"parents":[2147483647,0,0,1,1,2,2,5,5,6,6,9,9,10,10],"right_children":[2,4,6,-1,-1,8,10,-1,-1,12,14,-1,-1,-1,-1],"split_conditions":[1.5E0,5E-1,2.5E0,5.679324E-2,6.597908E-2,5E-1,3.5E0,7.26765E-3,1.2135916E-2,5E-1,5E-1,-2.9168144E-2,-3.4159556E-4,1.9345796E-2,-1.8673504E-2],"split_indices":[2,0,2,0,0,0,2,0,0,0,0,0,0,0,0],"split_type":[0,0,0,0,0,0,0,0,0,0,0,0,0,0,0],"sum_hessian":[8.905E3,8.612E3,2.93E2,4.296E3,4.316E3,2.72E2,2.1E1,1.29E2,1.43E2,1.8E1,3E0,1E1,8E0,2E0,1E0],"tree_param":{"num_deleted":"0","num_feature":"4","num_nodes":"15","size_leaf_vector":"0"}},{"base_weights":[5.2981657E-1,-1.441412E-1,5.660695E-1,-7.825935E-1,-9.777802E-2,4.688402E-1,6.236988E-1,1.3600196E-1,-1.0084965E0,2.234977E-1,-1.5456803E-1,3.322048E-1,5.040027E-1,5.8650494E-1,6.769287E-1,-4.8835814E-1,1.9410813E0,-1.0499282E0,-7.0677996E-3,-6.2814724E-1,2.8964075E-1,-2.7454406E-1,9.3670666E-2,3.246601E-1,1.2465765E0,4.3237066E-1,5.599507E-1,5.3119254E-1,6.2099737E-1,6.781511E-1,5.4041864E-3],"categories":[],"categories_nodes":[],"categories_segments":[],"categories_sizes":[],"default_left":[1,1,1,1,1,1,1,1,1,1,1,1,1,1,1,0,0,0,0,0,0,0,0,0,0,0,0,0,0,0,0],"id":24,"left_children":[1,3,5,7,9,11,13,15,17,19,21,23,25,27,29,-1,-1,-1,-1,-1,-1,-1,-1,-1,-1,-1,-1,-1,-1,-1,-1],"loss_changes":[2.1988013E2,1.3539787E1,4.7542725E1,6.570076E0,7.8800044E0,1.51154785E1,1.0208984E1,8.837079E0,1.0298519E0,3.8434134E0,1.092618E1,4.1070175E0,9.889282E0,5.7008057E0,1.7997437E0,0E0,0E0,0E0,0E0,0E0,0E0,0E0,0E0,0E0,0E0,0E0,0E0,0E0,0E0,0E0,0E0],"parents":[2147483647,0,0,1,1,2,2,3,3,4,4,5,5,6,6,7,7,8,8,9,9,10,10,11,11,12,12,13,13,14,14],"right_children":[2,4,6,8,10,12,14,16,18,20,22,24,26,28,30,-1,-1,-1,-1,-1,-1,-1,-1,-1,-1,-1,-1,-1,-1,-1,-1],"split_conditions":[3.45E1,2.55E1,3.85E1,2.15E1,1.95E1,3.65E1,2.85E1,2.05E1,4E1,1.55E1,3.35E1,4.15E1,2.65E1,3.95E1,4.65E1,-4.8835814E-2,1.9410813E-1,-1.0499282E-1,-7.0677995E-4,-6.281473E-2,2.8964076E-2,-2.7454406E-2,9.367066E-3,3.246601E-2,1.2465765E-1,4.3237068E-2,5.5995073E-2,5.3119253E-2,6.2099736E-2,6.781511E-2,5.4041867E-4],"split_indices":[3,3,3,1,1,3,1,1,1,1,3,1,1,3,3,0,0,0,0,0,0,0,0,0,0,0,0,0,0,0,0],"split_type":[0,0,0,0,0,0,0,0,0,0,0,0,0,0,0,0,0,0,0,0,0,0,0,0,0,0,0,0,0,0,0],"sum_hessian":[8.995E3,4.59E2,8.536E3,3E1,4.29E2,3.18E3,5.356E3,6E0,2.4E1,6.4E1,3.65E2,6.53E2,2.527E3,3.16E3,2.196E3,5E0,1E0,2.3E1,1E0,4E0,6E1,2.46E2,1.19E2,6.49E2,4E0,1.112E3,1.415E3,1.22E3,1.94E3,2.192E3,4E0],"tree_param":{"num_deleted":"0","num_feature":"4","num_nodes":"31","size_leaf_vector":"0"}},{"base_weights":[4.859531E-1,4.9989828E-1,6.404377E-2,4.6107993E-1,5.3739566E-1,8.17307E-2,-2.1647197E-1,1.8275334E-2,1.479742E-1,-2.686753E-1,1.1670196E-1,-3.735069E-1,-1.3025928E-1,1.6756177E-1,7.4911714E-3],"categories":[],"categories_nodes":[],"categories_segments":[],"categories_sizes":[],"default_left":[1,1,1,0,0,1,1,0,0,1,1,0,0,0,0],"id":25,"left_children":[1,3,5,-1,-1,7,9,-1,-1,11,13,-1,-1,-1,-1],"loss_changes":[5.1614502E1,1.2120117E1,1.4168248E0,0E0,0E0,1.1154281E0,3.2703227E-1,0E0,0E0,1.6900289E-1,1.54080875E-2,0E0,0E0,0E0,0E0],"parents":[2147483647,0,0,1,1,2,2,5,5,6,6,9,9,10,10],"right_children":[2,4,6,-1,-1,8,10,-1,-1,12,14,-1,-1,-1,-1],"split_conditions":[1.5E0,5E-1,2.5E0,4.6107993E-2,5.3739566E-2,5E-1,3.5E0,1.8275334E-3,1.4797419E-2,5E-1,5E-1,-3.735069E-2,-1.3025927E-2,1.6756177E-2,7.491172E-4],"split_indices":[2,0,2,0,0,0,2,0,0,0,0,0,0,0,0],"split_type":[0,0,0,0,0,0,0,0,0,0,0,0,0,0,0],"sum_hessian":[8.777E3,8.496E3,2.81E2,4.181E3,4.315E3,2.65E2,1.6E1,1.36E2,1.29E2,1.4E1,2E0,7E0,7E0,1E0,1E0],"tree_param":{"num_deleted":"0","num_feature":"4","num_nodes":"15","size_leaf_vector":"0"}},{"base_weights":[4.4016004E-1,-3.1242086E-2,4.802004E-1,-6.346031E-1,7.4929014E-2,3.0743608E-1,5.1092607E-1,-1.167958E0,-5.724348E-1,-1.5441267E-1,8.691021E-2,2.0787874E-1,3.8393003E-1,4.6890056E-1,5.6274384E-1,-6.4595276E-1,-2.9578564E-1,1.4454046E-1,-4.250304E-1,5.713423E-2,1.3480991E-1,1.8419248E-1,2.2007139E-1,3.243048E-1,4.1485232E-1,4.357553E-1,5.0180346E-1,5.100752E-1,6.1402285E-1],"categories":[],"categories_nodes":[],"categories_segments":[],"categories_sizes":[],"default_left":[1,1,1,1,1,1,1,0,1,1,1,1,1,1,1,0,0,0,0,0,0,0,0,0,0,0,0,0,0],"id":26,"left_children":[1,3,5,7,9,11,13,-1,15,17,19,21,23,25,27,-1,-1,-1,-1,-1,-1,-1,-1,-1,-1,-1,-1,-1,-1],"loss_changes":[1.6879626E2,4.495326E1,4.3593994E1,2.8129845E0,1.6538496E0,9.416763E0,1.4971069E1,0E0,1.7614498E0,2.4884946E0,8.0241394E-1,1.1656952E-1,1.1634598E0,4.0007935E0,8.134888E0,0E0,0E0,0E0,0E0,0E0,0E0,0E0,0E0,0E0,0E0,0E0,0E0,0E0,0E0],"parents":[2147483647,0,0,1,1,2,2,3,3,4,4,5,5,6,6,8,8,9,9,10,10,11,11,12,12,13,13,14,14],"right_children":[2,4,6,8,10,12,14,-1,16,18,20,22,24,26,28,-1,-1,-1,-1,-1,-1,-1,-1,-1,-1,-1,-1,-1,-1],"split_conditions":[3.55E1,2.95E1,3.75E1,2.25E1,3.05E1,5E-1,3.95E1,-1.167958E-1,2.85E1,5E-1,3.45E1,3.65E1,3.65E1,5E-1,5E-1,-6.4595275E-2,-2.9578565E-2,1.4454046E-2,-4.250304E-2,5.7134232E-3,1.3480991E-2,1.8419249E-2,2.200714E-2,3.243048E-2,4.148523E-2,4.3575533E-2,5.0180346E-2,5.100752E-2,6.1402287E-2],"split_indices":[3,3,3,3,3,0,3,0,3,0,3,3,3,0,0,0,0,0,0,0,0,0,0,0,0,0,0,0,0],"split_type":[0,0,0,0,0,0,0,0,0,0,0,0,0,0,0,0,0,0,0,0,0,0,0,0,0,0,0,0,0],"sum_hessian":[8.941E3,7E2,8.241E3,1.04E2,5.96E2,1.246E3,6.995E3,9E0,9.5E1,2.9E1,5.67E2,5.43E2,7.03E2,3.868E3,3.127E3,7.4E1,2.1E1,1.4E1,1.5E1,3.51E2,2.16E2,1.9E2,3.53E2,2.44E2,4.59E2,1.934E3,1.934E3,1.548E3,1.579E3],"tree_param":{"num_deleted":"0","num_feature":"4","num_nodes":"29","size_leaf_vector":"0"}},{"base_weights":[4.0035143E-1,-5.854419E-1,4.1595322E-1,-1.0462357E0,-5.295962E-1,2.4818769E-1,4.5871866E-1,1.9045988E-1,-5.7355297E-1,1.2560053E-1,3.021395E-1,4.0244177E-1,4.985558E-1,-4.1819113E-1,9.036587E-1,-6.110406E-1,2.2967845E-2,1.7362465E-1,4.611357E-2,1.8511511E-1,3.294278E-1,2.9272273E-1,4.3182185E-1,4.6710274E-1,5.4111487E-1],"categories":[],"categories_nodes":[],"categories_segments":[],"categories_sizes":[],"default_left":[1,1,1,0,1,1,1,1,1,1,1,1,1,0,0,0,0,0,0,0,0,0,0,0,0],"id":27,"left_children":[1,3,5,-1,7,9,11,13,15,17,19,21,23,-1,-1,-1,-1,-1,-1,-1,-1,-1,-1,-1,-1],"loss_changes":[1.370498E2,3.02285E0,6.2713867E1,0E0,4.0973053E0,1.1741226E1,1.5441162E1,3.8506155E0,2.675129E0,2.0762358E0,3.886055E0,9.21225E0,5.210144E0,0E0,0E0,0E0,0E0,0E0,0E0,0E0,0E0,0E0,0E0,0E0,0E0],"parents":[2147483647,0,0,1,1,2,2,4,4,5,5,6,6,7,7,8,8,9,9,10,10,11,11,12,12],"right_children":[2,4,6,-1,8,10,12,14,16,18,20,22,24,-1,-1,-1,-1,-1,-1,-1,-1,-1,-1,-1,-1],"split_conditions":[3.05E1,2.35E1,3.75E1,-1.0462357E-1,1.75E1,3.55E1,2.55E1,1.65E1,3.85E1,2.95E1,2.15E1,3.85E1,3.95E1,-4.1819114E-2,9.036587E-2,-6.110406E-2,2.2967847E-3,1.7362466E-2,4.611357E-3,1.8511511E-2,3.2942783E-2,2.9272273E-2,4.3182187E-2,4.6710275E-2,5.411149E-2],"split_indices":[3,3,3,0,1,3,1,1,1,1,1,3,3,0,0,0,0,0,0,0,0,0,0,0,0],"split_type":[0,0,0,0,0,0,0,0,0,0,0,0,0,0,0,0,0,0,0,0,0,0,0,0,0],"sum_hessian":[8.894E3,1.38E2,8.756E3,1.3E1,1.25E2,1.78E3,6.976E3,7E0,1.18E2,5.45E2,1.235E3,2.896E3,4.08E3,4E0,3E0,1.11E2,7E0,3.39E2,2.06E2,2.35E2,1E3,6.14E2,2.282E3,2.353E3,1.727E3],"tree_param":{"num_deleted":"0","num_feature":"4","num_nodes":"25","size_leaf_vector":"0"}},{"base_weights":[3.5949376E-1,-8.945783E-2,3.835242E-1,-5.662074E-1,-1.0378488E-2,2.6970878E-1,4.066639E-1,-6.9106424E-1,-2.0179994E-1,-2.0710257E-1,1.7592115E-2,2.3974633E-1,2.9179972E-1,3.747299E-1,4.4525468E-1,-1.0065906E0,-5.5792797E-1,-3.4110793E-1,-2.4591075E-2,-3.9154828E-1,5.513905E-1,8.7909244E-2,-2.0900927E-1,2.4818182E-1,1.6543454E-1,2.956703E-1,2.2850154E-1,3.7508324E-1,-4.9808908E-1,4.475057E-1,-9.913904E-2],"categories":[],"categories_nodes":[],"categories_segments":[],"categories_sizes":[],"default_left":[1,1,1,1,1,1,1,1,1,1,1,1,1,1,1,0,0,0,0,0,0,0,0,0,0,0,0,0,0,0,0],"id":28,"left_children":[1,3,5,7,9,11,13,15,17,19,21,23,25,27,29,-1,-1,-1,-1,-1,-1,-1,-1,-1,-1,-1,-1,-1,-1,-1,-1],"loss_changes":[9.69043E1,1.7223501E1,2.2336914E1,2.8179626E0,2.1661224E0,8.8516235E-1,8.559448E0,1.4547787E0,4.3597084E-1,7.071036E0,5.51559E0,3.4634018E-1,1.348114E-1,1.383728E0,3.96698E0,0E0,0E0,0E0,0E0,0E0,0E0,0E0,0E0,0E0,0E0,0E0,0E0,0E0,0E0,0E0,0E0],"parents":[2147483647,0,0,1,1,2,2,3,3,4,4,5,5,6,6,7,7,8,8,9,9,10,10,11,11,12,12,13,13,14,14],"right_children":[2,4,6,8,10,12,14,16,18,20,22,24,26,28,30,-1,-1,-1,-1,-1,-1,-1,-1,-1,-1,-1,-1,-1,-1,-1,-1],"split_conditions":[3.45E1,2.75E1,3.75E1,1.5E0,3.05E1,3.65E1,3.95E1,2.35E1,2.55E1,1.5E0,1.5E0,1.5E0,1.5E0,2.5E0,1.5E0,-1.00659065E-1,-5.5792797E-2,-3.4110796E-2,-2.4591077E-3,-3.9154828E-2,5.5139054E-2,8.790924E-3,-2.0900927E-2,2.4818182E-2,1.6543454E-2,2.9567031E-2,2.2850154E-2,3.7508324E-2,-4.980891E-2,4.475057E-2,-9.913905E-3],"split_indices":[3,3,3,2,3,3,3,3,3,2,2,2,2,2,2,0,0,0,0,0,0,0,0,0,0,0,0,0,0,0,0],"split_type":[0,0,0,0,0,0,0,0,0,0,0,0,0,0,0,0,0,0,0,0,0,0,0,0,0,0,0,0,0,0,0],"sum_hessian":[8.978E3,4.56E2,8.522E3,6.4E1,3.92E2,1.442E3,7.08E3,4.7E1,1.7E1,4.8E1,3.44E2,6.17E2,8.25E2,3.88E3,3.2E3,1.2E1,3.5E1,9E0,8E0,3.9E1,9E0,2.63E2,8.1E1,5.52E2,6.5E1,7.74E2,5.1E1,3.879E3,1E0,3.187E3,1.3E1],"tree_param":{"num_deleted":"0","num_feature":"4","num_nodes":"31","size_leaf_vector":"0"}},{"base_weights":[3.210853E-1,3.28652E-1,8.915144E-2,2.8743452E-1,3.6772367E-1,9.178533E-3,1.668549E-1,3.1297642E-3,2.8839493E-1,1.7327724E-1,6.2825546E-2,6.842155E-3,-5.897996E-2,7.988869E-2,-4.5371354E-2],"categories":[],"categories_nodes":[],"categories_segments":[],"categories_sizes":[],"default_left":[1,1,1,0,0,1,1,1,0,0,1,0,0,0,0],"id":29,"left_children":[1,3,5,-1,-1,7,9,11,-1,-1,13,-1,-1,-1,-1],"loss_changes":[1.578125E1,1.3943787E1,1.7757218E0,0E0,0E0,2.389234E-1,8.598995E-2,3.2684132E-2,0E0,0E0,2.2086449E-2,0E0,0E0,0E0,0E0],"parents":[2147483647,0,0,1,1,2,2,5,5,6,6,7,7,10,10],"right_children":[2,4,6,-1,-1,8,10,12,-1,-1,14,-1,-1,-1,-1],"split_conditions":[1.5E0,5E-1,5E-1,2.8743451E-2,3.6772367E-2,3.5E0,2.5E0,2.5E0,2.8839493E-2,1.7327724E-2,3.5E0,6.842155E-4,-5.897996E-3,7.988869E-3,-4.5371354E-3],"split_indices":[2,0,0,0,0,2,2,2,0,0,2,0,0,0,0],"split_type":[0,0,0,0,0,0,0,0,0,0,0,0,0,0,0],"sum_hessian":[9.008E3,8.723E3,2.85E2,4.249E3,4.474E3,1.41E2,1.44E2,1.39E2,2E0,1.35E2,9E0,1.32E2,7E0,8E0,1E0],"tree_param":{"num_deleted":"0","num_feature":"4","num_nodes":"15","size_leaf_vector":"0"}},{"base_weights":[2.8634697E-1,2.4165252E-1,3.2948843E-1,1.6231054E-1,2.5551403E-1,3.18373E-1,4.4867125E-1,-1.6814004E-1,1.6666308E-1,3.3518216E-1,2.5051588E-1,1.4487197E-1,3.2395184E-1,4.04953E-1,4.9256188E-1,-3.3092022E-1,-1.0642749E-1,2.6315376E-1,1.5847796E-1,2.4175967E-1,2.9451486E-1,2.4682705E-1,5.249929E-2,2.9228398E-1,3.3417094E-1,5.9135354E-1,4.4240513E-1],"categories":[],"categories_nodes":[],"categories_segments":[],"categories_sizes":[],"default_left":[1,1,1,1,1,1,1,1,1,0,1,1,1,0,1,0,0,0,0,0,0,0,0,0,0,0,0],"id":30,"left_children":[1,3,5,7,9,11,13,15,17,-1,19,21,23,-1,25,-1,-1,-1,-1,-1,-1,-1,-1,-1,-1,-1,-1],"loss_changes":[1.7096619E1,4.7745514E0,5.858368E0,9.686718E-1,1.399704E0,3.967102E0,5.373688E-1,5.519122E-2,4.6849823E-1,0E0,1.2810822E0,1.220782E0,1.2023315E0,0E0,6.64978E-1,0E0,0E0,0E0,0E0,0E0,0E0,0E0,0E0,0E0,0E0,0E0,0E0],"parents":[2147483647,0,0,1,1,2,2,3,3,4,4,5,5,6,6,7,7,8,8,10,10,11,11,12,12,14,14],"right_children":[2,4,6,8,10,12,14,16,18,-1,20,22,24,-1,26,-1,-1,-1,-1,-1,-1,-1,-1,-1,-1,-1,-1],"split_conditions":[5E-1,2.05E1,3.65E1,1.45E1,2.15E1,1.75E1,3.85E1,1.35E1,1.65E1,3.3518218E-2,3.45E1,1.65E1,2.25E1,4.0495303E-2,3.95E1,-3.3092022E-2,-1.0642749E-2,2.6315376E-2,1.5847797E-2,2.4175968E-2,2.9451488E-2,2.4682706E-2,5.249929E-3,2.9228399E-2,3.3417094E-2,5.9135355E-2,4.4240516E-2],"split_indices":[0,1,1,1,1,1,1,1,1,0,1,1,1,0,1,0,0,0,0,0,0,0,0,0,0,0,0],"split_type":[0,0,0,0,0,0,0,0,0,0,0,0,0,0,0,0,0,0,0,0,0,0,0,0,0,0,0],"sum_hessian":[8.907E3,4.378E3,4.529E3,6.53E2,3.725E3,4.146E3,3.83E2,8E0,6.45E2,2.16E2,3.509E3,1.3E2,4.016E3,1.97E2,1.86E2,1E0,7E0,4.8E1,5.97E2,2.932E3,5.77E2,6.1E1,6.9E1,9.87E2,3.029E3,5.9E1,1.27E2],"tree_param":{"num_deleted":"0","num_feature":"4","num_nodes":"27","size_leaf_vector":"0"}},{"base_weights":[2.6597187E-1,-9.92409E-2,2.962709E-1,-8.194054E-1,-3.2676857E-2,1.777193E-1,3.1774485E-1,-9.875686E-1,-5.5792713E-1,-9.8009616E-2,1.7375018E-2,1.2581754E-1,2.1827535E-1,2.8244382E-1,3.5220677E-1,-7.5080603E-1,-3.2213077E-1,-1.4294031E-1,-5.4304443E-2,9.437499E-2,-3.7602834E-2,1.7101508E-1,1.0035829E-1,1.6559614E-1,2.4630895E-1,2.8868195E-1,1.2907287E-1,3.1564134E-1,3.9864624E-1],"categories":[],"categories_nodes":[],"categories_segments":[],"categories_sizes":[],"default_left":[1,1,1,1,1,1,1,0,1,1,1,1,1,1,1,0,0,0,0,0,0,0,0,0,0,0,0,0,0],"id":31,"left_children":[1,3,5,7,9,11,13,-1,15,17,19,21,23,25,27,-1,-1,-1,-1,-1,-1,-1,-1,-1,-1,-1,-1,-1,-1],"loss_changes":[9.901111E1,3.2858047E1,2.0971558E1,1.9993248E0,2.05855E0,2.6436958E0,8.406616E0,0E0,8.9514637E-1,5.2832866E-1,1.5148344E0,6.2607574E-1,1.0092087E0,3.2721252E0,5.875183E0,0E0,0E0,0E0,0E0,0E0,0E0,0E0,0E0,0E0,0E0,0E0,0E0,0E0,0E0],"parents":[2147483647,0,0,1,1,2,2,3,3,4,4,5,5,6,6,8,8,9,9,10,10,11,11,12,12,13,13,14,14],"right_children":[2,4,6,8,10,12,14,-1,16,18,20,22,24,26,28,-1,-1,-1,-1,-1,-1,-1,-1,-1,-1,-1,-1,-1,-1],"split_conditions":[3.55E1,2.75E1,3.75E1,2.55E1,3.35E1,5E-1,5E-1,-9.8756865E-2,5E-1,5E-1,3.45E1,3.65E1,3.65E1,4.25E1,3.95E1,-7.50806E-2,-3.2213077E-2,-1.4294031E-2,-5.4304446E-3,9.4375E-3,-3.7602836E-3,1.710151E-2,1.003583E-2,1.6559614E-2,2.4630895E-2,2.8868197E-2,1.2907288E-2,3.1564135E-2,3.9864626E-2],"split_indices":[3,3,3,3,3,0,0,0,0,0,3,3,3,3,3,0,0,0,0,0,0,0,0,0,0,0,0,0,0],"split_type":[0,0,0,0,0,0,0,0,0,0,0,0,0,0,0,0,0,0,0,0,0,0,0,0,0,0,0,0,0],"sum_hessian":[8.944E3,6.85E2,8.259E3,5.7E1,6.28E2,1.268E3,6.991E3,3.3E1,2.4E1,2.72E2,3.56E2,5.58E2,7.1E2,3.458E3,3.533E3,1.2E1,1.2E1,1.33E2,1.39E2,1.48E2,2.08E2,1.99E2,3.59E2,2.49E2,4.61E2,3.322E3,1.36E2,1.981E3,1.552E3],"tree_param":{"num_deleted":"0","num_feature":"4","num_nodes":"29","size_leaf_vector":"0"}},{"base_weights":[2.2992395E-1,-2.9028156E-1,2.4899054E-1,-5.9786147E-1,-1.7534865E-1,1.7170121E-1,2.9572344E-1,-7.668603E-1,-4.5804882E-1,-9.961396E-2,-2.5425115E-1,4.2964984E-2,1.8775581E-1,2.9847616E-1,-2.1774632E-1,-8.761642E-1,-3.2945222E-1,-4.0573712E-2,-3.0923584E-1,-2.6990154E-1,6.722232E-2,1.0849502E-1,-1.4295311E-3,1.5316792E-1,2.1283352E-1,2.697038E-1,3.1885853E-1,-9.595993E-2,-7.8312904E-1],"categories":[],"categories_nodes":[],"categories_segments":[],"categories_sizes":[],"default_left":[1,1,1,1,1,1,1,1,0,1,1,1,1,1,1,0,0,0,0,0,0,0,0,0,0,0,0,0,0],"id":32,"left_children":[1,3,5,7,9,11,13,15,-1,17,19,21,23,25,27,-1,-1,-1,-1,-1,-1,-1,-1,-1,-1,-1,-1,-1,-1],"loss_changes":[8.802988E1,1.0995396E1,3.0849487E1,1.6571369E0,1.3490744E0,6.659462E0,7.5986023E0,1.4803295E0,0E0,1.4602126E0,5.81635E-1,1.0445487E0,2.4550552E0,3.0233765E0,1.9216727E0,0E0,0E0,0E0,0E0,0E0,0E0,0E0,0E0,0E0,0E0,0E0,0E0,0E0,0E0],"parents":[2147483647,0,0,1,1,2,2,3,3,4,4,5,5,6,6,7,7,9,9,10,10,11,11,12,12,13,13,14,14],"right_children":[2,4,6,8,10,12,14,16,-1,18,20,22,24,26,28,-1,-1,-1,-1,-1,-1,-1,-1,-1,-1,-1,-1,-1,-1],"split_conditions":[3.35E1,2.95E1,3.85E1,2.65E1,3.25E1,3.55E1,1.5E0,1.5E0,-4.5804884E-2,1.5E0,2.5E0,3.45E1,3.75E1,3.95E1,4.15E1,-8.761642E-2,-3.2945223E-2,-4.0573715E-3,-3.0923584E-2,-2.6990155E-2,6.722232E-3,1.0849502E-2,-1.4295311E-4,1.5316792E-2,2.1283353E-2,2.697038E-2,3.1885855E-2,-9.595993E-3,-7.83129E-2],"split_indices":[3,3,3,3,3,3,2,2,0,2,2,3,3,3,3,0,0,0,0,0,0,0,0,0,0,0,0,0,0],"split_type":[0,0,0,0,0,0,0,0,0,0,0,0,0,0,0,0,0,0,0,0,0,0,0,0,0,0,0,0,0],"sum_hessian":[8.867E3,3.13E2,8.554E3,8.4E1,2.29E2,3.225E3,5.329E3,3.6E1,4.8E1,1.18E2,1.11E2,3.58E2,2.867E3,5.301E3,2.8E1,2.8E1,8E0,9.3E1,2.5E1,1.06E2,5E0,1.44E2,2.14E2,1.208E3,1.659E3,2.204E3,3.097E3,2.4E1,4E0],"tree_param":{"num_deleted":"0","num_feature":"4","num_nodes":"29","size_leaf_vector":"0"}},{"base_weights":[2.1509168E-1,2.7844144E-2,2.4157485E-1,-2.4624352E-1,7.918686E-2,1.8578286E-1,2.666433E-1,3.6866212E-1,-3.9930433E-1,1.1108848E-1,-8.997471E-2,1.3033146E-1,2.712303E-1,2.748312E-1,1.22229874E-1,1.5290456E-1,1.6326267E0,-6.686133E-1,-1.2429104E-1,3.347601E-1,9.325162E-2,-4.8929217E-1,-8.081122E-3,1.4356561E-1,1.3102768E-2,3.023332E-1,2.0507595E-1,2.6394084E-1,3.742224E-1,-1.0396928E-2,1.7154077E-1],"categories":[],"categories_nodes":[],"categories_segments":[],"categories_sizes":[],"default_left":[1,1,1,1,1,1,1,1,1,1,1,1,1,1,1,0,0,0,0,0,0,0,0,0,0,0,0,0,0,0,0],"id":33,"left_children":[1,3,5,7,9,11,13,15,17,19,21,23,25,27,29,-1,-1,-1,-1,-1,-1,-1,-1,-1,-1,-1,-1,-1,-1,-1,-1],"loss_changes":[4.3770508E1,1.54287815E1,1.0767395E1,1.6429617E1,4.990991E0,1.1341019E1,6.2735596E0,9.295212E0,1.0211729E1,3.0687008E0,4.803172E0,2.2600937E0,1.8803635E0,5.3641357E0,1.8852882E0,0E0,0E0,0E0,0E0,0E0,0E0,0E0,0E0,0E0,0E0,0E0,0E0,0E0,0E0,0E0,0E0],"parents":[2147483647,0,0,1,1,2,2,3,3,4,4,5,5,6,6,7,7,8,8,9,9,10,10,11,11,12,12,13,13,14,14],"right_children":[2,4,6,8,10,12,14,16,18,20,22,24,26,28,30,-1,-1,-1,-1,-1,-1,-1,-1,-1,-1,-1,-1,-1,-1,-1,-1],"split_conditions":[3.65E1,3.15E1,3.85E1,2.15E1,3.45E1,2.95E1,4.25E1,2.05E1,2.85E1,1.85E1,3.35E1,2.85E1,3.55E1,3.55E1,2.15E1,1.5290456E-2,1.6326267E-1,-6.686133E-2,-1.2429104E-2,3.347601E-2,9.3251625E-3,-4.892922E-2,-8.0811227E-4,1.4356561E-2,1.3102768E-3,3.0233322E-2,2.0507595E-2,2.6394084E-2,3.742224E-2,-1.0396928E-3,1.7154077E-2],"split_indices":[3,3,3,1,1,1,3,1,1,1,3,1,1,1,1,0,0,0,0,0,0,0,0,0,0,0,0,0,0,0,0],"split_type":[0,0,0,0,0,0,0,0,0,0,0,0,0,0,0,0,0,0,0,0,0,0,0,0,0,0,0,0,0,0,0],"sum_hessian":[8.827E3,1.094E3,7.733E3,1.72E2,9.22E2,2.4E3,5.333E3,3.4E1,1.38E2,7.76E2,1.46E2,1.457E3,9.43E2,5.046E3,2.87E2,3E1,4E0,6.9E1,6.9E1,5.6E1,7.2E2,2.4E1,1.22E2,1.309E3,1.48E2,6.39E2,3.04E2,4.551E3,4.95E2,7.8E1,2.09E2],"tree_param":{"num_deleted":"0","num_feature":"4","num_nodes":"31","size_leaf_vector":"0"}},{"base_weights":[1.8062493E-1,1.8548366E-1,2.2430828E-2,1.6625682E-1,2.0700715E-1,1.4019772E-1,-6.0973994E-2,-6.332278E-2,1.6707607E-1,2.0426074E-1,4.542854E-1,-7.336593E-2,2.56897E-1,-2.380193E-1,-2.4018288E-2,-2.443963E-1,1.1191864E-2,4.082062E-1,1.6538943E-1,2.1373E-1,1.8139935E-1,5.080631E-1,2.8696448E-1,9.2564726E-1,-1.503047E-1,1.6012713E-1,3.441083E-1,-2.6348537E-1,2.1204925E-1,5.9999347E-1,-8.621931E-2],"categories":[],"categories_nodes":[],"categories_segments":[],"categories_sizes":[],"default_left":[1,1,1,1,1,1,1,1,1,1,1,1,1,1,1,0,0,0,0,0,0,0,0,0,0,0,0,0,0,0,0],"id":34,"left_children":[1,3,5,7,9,11,13,15,17,19,21,23,25,27,29,-1,-1,-1,-1,-1,-1,-1,-1,-1,-1,-1,-1,-1,-1,-1,-1],"loss_changes":[6.8535156E0,3.5476685E0,2.63111E0,8.714371E-1,2.6780396E0,2.7852702E0,1.0215082E0,2.3210993E-1,1.7874374E0,8.351593E-1,2.5012112E-1,3.213643E0,5.5253744E-1,3.6533177E-1,5.136387E0,0E0,0E0,0E0,0E0,0E0,0E0,0E0,0E0,0E0,0E0,0E0,0E0,0E0,0E0,0E0,0E0],"parents":[2147483647,0,0,1,1,2,2,3,3,4,4,5,5,6,6,7,7,8,8,9,9,10,10,11,11,12,12,13,13,14,14],"right_children":[2,4,6,8,10,12,14,16,18,20,22,24,26,28,30,-1,-1,-1,-1,-1,-1,-1,-1,-1,-1,-1,-1,-1,-1,-1,-1],"split_conditions":[1.5E0,2.75E1,2.85E1,1.45E1,4.25E1,2.25E1,3.05E1,1.35E1,1.55E1,3.45E1,4.45E1,1.65E1,2.55E1,2.5E0,3.15E1,-2.4439631E-2,1.1191864E-3,4.082062E-2,1.6538944E-2,2.1373002E-2,1.8139934E-2,5.080631E-2,2.8696448E-2,9.2564724E-2,-1.5030471E-2,1.6012713E-2,3.441083E-2,-2.6348537E-2,2.1204924E-2,5.9999347E-2,-8.621931E-3],"split_indices":[2,1,1,1,1,1,1,1,1,1,1,1,1,2,1,0,0,0,0,0,0,0,0,0,0,0,0,0,0,0,0],"split_type":[0,0,0,0,0,0,0,0,0,0,0,0,0,0,0,0,0,0,0,0,0,0,0,0,0,0,0,0,0,0,0],"sum_hessian":[8.921E3,8.655E3,2.66E2,4.576E3,4.079E3,1.1E2,1.56E2,1.6E1,4.56E3,4.036E3,4.3E1,3.9E1,7.1E1,2.6E1,1.3E2,4E0,1.2E1,3E1,4.53E3,2.848E3,1.188E3,3.1E1,1.2E1,2E0,3.7E1,3.5E1,3.6E1,2.5E1,1E0,1.1E1,1.19E2],"tree_param":{"num_deleted":"0","num_feature":"4","num_nodes":"31","size_leaf_vector":"0"}},{"base_weights":[1.7023906E-1,9.3538195E-2,2.2160001E-1,-3.2888573E-1,1.09079204E-1,1.777337E-1,2.650883E-1,-4.6029636E-1,-1.484883E-1,5.10066E-2,1.19663835E-1,1.8808459E-1,-1.5521176E-2,2.3670387E-1,3.500147E-1,-2.4776784E-1,-6.603844E-1,2.6333956E-2,-2.950513E-1,1.9919983E-1,2.0449964E-2,1.02309726E-1,1.3553393E-1,1.911072E-1,1.2957853E-1,-8.910069E-3,-1.3608156E-1,2.4305782E-1,2.2856309E-1,3.5967073E-1,-4.0911872E-2],"categories":[],"categories_nodes":[],"categories_segments":[],"categories_sizes":[],"default_left":[1,1,1,1,1,1,1,1,1,1,1,1,1,1,1,0,0,0,0,0,0,0,0,0,0,0,0,0,0,0,0],"id":35,"left_children":[1,3,5,7,9,11,13,15,17,19,21,23,25,27,29,-1,-1,-1,-1,-1,-1,-1,-1,-1,-1,-1,-1,-1,-1,-1,-1],"loss_changes":[3.5048065E1,2.348567E1,1.0122711E1,2.9423304E0,2.1120758E0,5.3178635E0,6.3654785E0,2.9406595E0,1.417006E0,2.409503E0,7.8868103E-1,4.2123413E-1,1.0718461E-1,4.8309326E-2,2.5362854E0,0E0,0E0,0E0,0E0,0E0,0E0,0E0,0E0,0E0,0E0,0E0,0E0,0E0,0E0,0E0,0E0],"parents":[2147483647,0,0,1,1,2,2,3,3,4,4,5,5,6,6,7,7,8,8,9,9,10,10,11,11,12,12,13,13,14,14],"right_children":[2,4,6,8,10,12,14,16,18,20,22,24,26,28,30,-1,-1,-1,-1,-1,-1,-1,-1,-1,-1,-1,-1,-1,-1,-1,-1],"split_conditions":[3.85E1,3.05E1,5E-1,2.85E1,3.55E1,4.25E1,4.05E1,5E-1,2.95E1,3.25E1,5E-1,4.15E1,4.65E1,3.95E1,4.55E1,-2.4776785E-2,-6.6038445E-2,2.6333956E-3,-2.9505132E-2,1.9919982E-2,2.0449965E-3,1.0230972E-2,1.3553393E-2,1.911072E-2,1.2957853E-2,-8.9100696E-4,-1.3608157E-2,2.4305781E-2,2.2856308E-2,3.5967074E-2,-4.0911874E-3],"split_indices":[3,3,0,3,3,3,3,0,3,3,0,3,3,3,3,0,0,0,0,0,0,0,0,0,0,0,0,0,0,0,0],"split_type":[0,0,0,0,0,0,0,0,0,0,0,0,0,0,0,0,0,0,0,0,0,0,0,0,0,0,0,0,0,0,0],"sum_hessian":[8.901E3,3.571E3,5.33E3,1.26E2,3.445E3,2.656E3,2.674E3,7.2E1,5.4E1,5.32E2,2.913E3,2.521E3,1.35E2,2.007E3,6.67E2,3.6E1,3.6E1,2.5E1,2.9E1,9E1,4.42E2,1.395E3,1.518E3,2.395E3,1.26E2,1.29E2,6E0,1.111E3,8.96E2,6.51E2,1.6E1],"tree_param":{"num_deleted":"0","num_feature":"4","num_nodes":"31","size_leaf_vector":"0"}},{"base_weights":[1.4166154E-1,1.0453754E-1,1.6727188E-1,1.0931802E-1,-1.0268573E-1,1.722883E-1,3.721625E-2,5.8182888E-2,1.18156984E-1,-2.0722386E-1,9.45635E-3,1.7031388E-1,3.2997915E-1,1.7311677E-2,8.0207044E-1,-1.64747E-1,6.367593E-2,1.3104443E-1,8.6811006E-2,-1.7647114E-1,-7.49419E-1,3.9087862E-1,-1.8159251E-1,1.7303813E-1,7.4452825E-2,3.72371E-1,-2.7121902E-3,2.9976107E-2,-4.6739897E-1,1.2732724E0,6.351169E-2],"categories":[],"categories_nodes":[],"categories_segments":[],"categories_sizes":[],"default_left":[1,1,1,1,1,1,1,1,1,1,1,1,1,1,1,0,0,0,0,0,0,0,0,0,0,0,0,0,0,0,0],"id":36,"left_children":[1,3,5,7,9,11,13,15,17,19,21,23,25,27,29,-1,-1,-1,-1,-1,-1,-1,-1,-1,-1,-1,-1,-1,-1,-1,-1],"loss_changes":[8.495605E0,3.6349373E0,3.449417E0,1.6094131E0,9.749788E-1,1.5316772E0,3.000486E0,6.58285E-1,1.2199249E0,5.8473E-1,3.0586622E0,1.3030548E0,8.754206E-1,1.2048961E0,1.6591837E0,0E0,0E0,0E0,0E0,0E0,0E0,0E0,0E0,0E0,0E0,0E0,0E0,0E0,0E0,0E0,0E0],"parents":[2147483647,0,0,1,1,2,2,3,3,4,4,5,5,6,6,7,7,8,8,9,9,10,10,11,11,12,12,13,13,14,14],"right_children":[2,4,6,8,10,12,14,16,18,20,22,24,26,28,30,-1,-1,-1,-1,-1,-1,-1,-1,-1,-1,-1,-1,-1,-1,-1,-1],"split_conditions":[2.55E1,1.5E0,1.5E0,1.85E1,2.25E1,4.15E1,4.15E1,1.45E1,2.35E1,2.5E0,2.35E1,3.95E1,4.45E1,4.05E1,4.45E1,-1.64747E-2,6.3675935E-3,1.3104443E-2,8.681101E-3,-1.7647116E-2,-7.4941896E-2,3.908786E-2,-1.8159252E-2,1.7303813E-2,7.445283E-3,3.72371E-2,-2.7121903E-4,2.9976107E-3,-4.67399E-2,1.2732725E-1,6.351169E-3],"split_indices":[1,2,2,1,1,1,1,1,1,2,1,1,1,1,1,0,0,0,0,0,0,0,0,0,0,0,0,0,0,0,0],"split_type":[0,0,0,0,0,0,0,0,0,0,0,0,0,0,0,0,0,0,0,0,0,0,0,0,0,0,0,0,0,0,0],"sum_hessian":[8.953E3,3.657E3,5.296E3,3.575E3,8.2E1,5.099E3,1.97E2,5.28E2,3.047E3,4.2E1,4E1,5.038E3,6.1E1,1.93E2,4E0,1.2E1,5.16E2,2.157E3,8.9E2,4.1E1,1E0,1.3E1,2.7E1,4.898E3,1.4E2,5.4E1,7E0,1.89E2,4E0,2E0,2E0],"tree_param":{"num_deleted":"0","num_feature":"4","num_nodes":"31","size_leaf_vector":"0"}},{"base_weights":[1.3894214E-1,-4.3667533E-2,1.6482884E-1,-5.1925313E-1,-5.8730613E-3,1.2723044E-1,1.822105E-1,-3.069222E-1,-8.099874E-1,-1.0892221E-1,1.2304973E-2,9.8340996E-2,1.5359586E-1,1.8992612E-1,2.8657384E-2,-1.5640413E-2,-5.63993E-1,3.3167575E-2,-2.5705722E-1,-2.6394626E-2,4.4677068E-2,2.8436745E-2,1.2951669E-1,1.412043E-1,1.6016155E-1,1.747747E-1,2.4572428E-1,4.2594265E-2,-3.212367E-1],"categories":[],"categories_nodes":[],"categories_segments":[],"categories_sizes":[],"default_left":[1,1,1,1,1,1,1,1,0,1,1,1,1,1,1,0,0,0,0,0,0,0,0,0,0,0,0,0,0],"id":37,"left_children":[1,3,5,7,9,11,13,15,-1,17,19,21,23,25,27,-1,-1,-1,-1,-1,-1,-1,-1,-1,-1,-1,-1,-1,-1],"loss_changes":[4.239093E1,2.0020552E1,5.1089325E0,4.8134117E0,1.936388E0,1.878437E0,6.3543396E0,3.6603007E0,0E0,3.271039E0,1.1023791E0,2.5875206E0,8.298874E-2,4.2779846E0,1.2718024E0,0E0,0E0,0E0,0E0,0E0,0E0,0E0,0E0,0E0,0E0,0E0,0E0,0E0,0E0],"parents":[2147483647,0,0,1,1,2,2,3,3,4,4,5,5,6,6,7,7,9,9,10,10,11,11,12,12,13,13,14,14],"right_children":[2,4,6,8,10,12,14,16,-1,18,20,22,24,26,28,-1,-1,-1,-1,-1,-1,-1,-1,-1,-1,-1,-1,-1,-1],"split_conditions":[3.65E1,2.85E1,3.85E1,2.65E1,3.25E1,5E-1,4.25E1,5E-1,-8.099874E-2,5E-1,5E-1,3.75E1,3.75E1,4.05E1,4.65E1,-1.5640414E-3,-5.6399297E-2,3.3167575E-3,-2.5705723E-2,-2.6394627E-3,4.4677067E-3,2.8436745E-3,1.2951669E-2,1.412043E-2,1.6016155E-2,1.7477471E-2,2.4572428E-2,4.2594266E-3,-3.212367E-2],"split_indices":[3,3,3,3,3,0,3,0,0,0,0,3,3,3,3,0,0,0,0,0,0,0,0,0,0,0,0,0,0],"split_type":[0,0,0,0,0,0,0,0,0,0,0,0,0,0,0,0,0,0,0,0,0,0,0,0,0,0,0,0,0],"sum_hessian":[8.965E3,1.113E3,7.852E3,8.1E1,1.032E3,2.485E3,5.367E3,4.8E1,3.3E1,1.54E2,8.78E2,1.188E3,1.297E3,5.11E3,2.57E2,2.3E1,2.5E1,7.9E1,7.5E1,4E2,4.78E2,3.67E2,8.21E2,4.57E2,8.4E2,4.022E3,1.088E3,2.48E2,9E0],"tree_param":{"num_deleted":"0","num_feature":"4","num_nodes":"29","size_leaf_vector":"0"}},{"base_weights":[1.2241476E-1,1.2633082E-1,-3.3671244E-3,1.057896E-1,1.4605995E-1,-5.9338808E-2,5.221776E-2,-6.467787E-2,3.280477E-1,5.9884943E-2,-7.794276E-2,-4.8582077E-2,-3.4976125E-1],"categories":[],"categories_nodes":[],"categories_segments":[],"categories_sizes":[],"default_left":[1,1,1,0,0,1,1,1,0,0,0,0,0],"id":38,"left_children":[1,3,5,-1,-1,7,9,11,-1,-1,-1,-1,-1],"loss_changes":[4.3892365E0,3.4864044E0,8.4311706E-1,0E0,0E0,3.0043525E-1,1.4039072E-1,5.978861E-1,0E0,0E0,0E0,0E0,0E0],"parents":[2147483647,0,0,1,1,2,2,5,5,6,6,7,7],"right_children":[2,4,6,-1,-1,8,10,12,-1,-1,-1,-1,-1],"split_conditions":[1.5E0,5E-1,5E-1,1.057896E-2,1.4605994E-2,3.5E0,2.5E0,2.5E0,3.280477E-2,5.9884945E-3,-7.794276E-3,-4.858208E-3,-3.4976125E-2],"split_indices":[2,0,0,0,0,2,2,2,0,0,0,0,0],"split_type":[0,0,0,0,0,0,0,0,0,0,0,0,0],"sum_hessian":[8.909E3,8.64E3,2.69E2,4.236E3,4.404E3,1.34E2,1.35E2,1.33E2,1E0,1.28E2,7E0,1.27E2,6E0],"tree_param":{"num_deleted":"0","num_feature":"4","num_nodes":"13","size_leaf_vector":"0"}},{"base_weights":[1.1543868E-1,4.4281095E-2,1.276764E-1,1.3093785E-2,6.4844064E-2,9.781211E-2,1.5665174E-1,4.5685947E-2,-1.9050762E-2,9.554896E-2,3.806941E-2,1.02038294E-1,-6.8515256E-2,1.3211563E-1,2.2424291E-1,-3.6462188E-1,4.8701238E-2,-2.5379345E-1,-1.3496262E-2,1.2605757E-1,7.085317E-2,-1.8610027E-2,9.565146E-2,6.228371E-2,1.1528157E-1,-1.4143184E-1,2.912353E-1,1.8245973E-1,1.1633481E-1,2.7982783E-1,1.9328453E-1],"categories":[],"categories_nodes":[],"categories_segments":[],"categories_sizes":[],"default_left":[1,1,1,1,1,1,1,1,1,1,1,1,1,1,1,0,0,0,0,0,0,0,0,0,0,0,0,0,0,0,0],"id":39,"left_children":[1,3,5,7,9,11,13,15,17,19,21,23,25,27,29,-1,-1,-1,-1,-1,-1,-1,-1,-1,-1,-1,-1,-1,-1,-1,-1],"loss_changes":[7.717537E0,8.347697E-1,6.532608E0,5.446061E-1,6.4172125E-1,2.6282158E0,6.337059E0,3.3695447E-1,3.381909E-1,2.660718E-1,1.3758056E0,1.9076309E0,2.4807456E0,2.2183876E0,1.7028732E0,0E0,0E0,0E0,0E0,0E0,0E0,0E0,0E0,0E0,0E0,0E0,0E0,0E0,0E0,0E0,0E0],"parents":[2147483647,0,0,1,1,2,2,3,3,4,4,5,5,6,6,7,7,8,8,9,9,10,10,11,11,12,12,13,13,14,14],"right_children":[2,4,6,8,10,12,14,16,18,20,22,24,26,28,30,-1,-1,-1,-1,-1,-1,-1,-1,-1,-1,-1,-1,-1,-1,-1,-1],"split_conditions":[2.05E1,1.85E1,5E-1,5E-1,1.95E1,3.95E1,3.25E1,1.35E1,1.45E1,5E-1,5E-1,2.45E1,4.25E1,2.35E1,3.45E1,-3.6462188E-2,4.8701237E-3,-2.5379345E-2,-1.3496262E-3,1.26057565E-2,7.085317E-3,-1.8610026E-3,9.565147E-3,6.228371E-3,1.1528157E-2,-1.4143184E-2,2.912353E-2,1.8245973E-2,1.1633481E-2,2.7982784E-2,1.9328453E-2],"split_indices":[1,1,0,0,1,1,1,1,1,0,0,1,1,1,1,0,0,0,0,0,0,0,0,0,0,0,0,0,0,0,0],"split_type":[0,0,0,0,0,0,0,0,0,0,0,0,0,0,0,0,0,0,0,0,0,0,0,0,0,0,0,0,0,0,0],"sum_hessian":[8.868E3,1.302E3,7.566E3,5.18E2,7.84E2,3.728E3,3.838E3,2.57E2,2.61E2,3.64E2,4.2E2,3.636E3,9.2E1,2.818E3,1.02E3,1E0,2.56E2,5E0,2.56E2,1.61E2,2.03E2,2.12E2,2.08E2,9.1E2,2.726E3,7.7E1,1.5E1,6.7E2,2.148E3,3.62E2,6.58E2],"tree_param":{"num_deleted":"0","num_feature":"4","num_nodes":"31","size_leaf_vector":"0"}},{"base_weights":[9.951017E-2,1.0392131E-1,-3.2908067E-2,8.937224E-2,1.1750707E-1,-3.7641924E-2,3.1734008E-1,-8.641399E-2,3.3425973E-3,3.789927E-1,6.619108E-2,-9.5598206E-2,4.972572E-2,3.7285634E-3,-3.4615728E-3],"categories":[],"categories_nodes":[],"categories_segments":[],"categories_sizes":[],"default_left":[1,1,1,0,0,1,1,1,1,0,0,0,0,0,0],"id":40,"left_children":[1,3,5,-1,-1,7,9,11,13,-1,-1,-1,-1,-1,-1],"loss_changes":[5.280319E0,1.7176437E0,4.960884E-1,0E0,0E0,5.7797086E-1,3.6850065E-2,1.6979825E-1,4.2784307E-4,0E0,0E0,0E0,0E0,0E0,0E0],"parents":[2147483647,0,0,1,1,2,2,5,5,6,6,7,7,8,8],"right_children":[2,4,6,-1,-1,8,10,12,14,-1,-1,-1,-1,-1,-1],"split_conditions":[1.5E0,5E-1,3.5E0,8.937224E-3,1.1750707E-2,5E-1,5E-1,2.5E0,2.5E0,3.789927E-2,6.619108E-3,-9.55982E-3,4.972572E-3,3.7285636E-4,-3.461573E-4],"split_indices":[2,0,2,0,0,0,0,2,2,0,0,0,0,0,0],"split_type":[0,0,0,0,0,0,0,0,0,0,0,0,0,0,0],"sum_hessian":[9.033E3,8.742E3,2.91E2,4.225E3,4.517E3,2.88E2,3E0,1.31E2,1.57E2,2E0,1E0,1.23E2,8E0,1.49E2,8E0],"tree_param":{"num_deleted":"0","num_feature":"4","num_nodes":"15","size_leaf_vector":"0"}},{"base_weights":[8.510465E-2,-1.4648643E-1,1.05296426E-1,-4.6232408E-1,-1.0547041E-1,6.829492E-2,1.24691665E-1,-6.922745E-1,-3.4932345E-1,-1.7618138E-1,-8.418619E-2,5.366657E-2,7.933288E-2,1.1214507E-1,1.6165952E-1,-7.202213E-1,3.1971335E-3,-2.3421425E-1,-4.451146E-1,-1.3712491E-1,-2.875335E-1,-1.6276857E-3,-1.0978822E-1,4.307763E-2,5.939013E-2,8.137391E-2,-7.1349647E-3,1.1298193E-1,-1.5468267E-1,1.960213E-1,1.0947109E-1],"categories":[],"categories_nodes":[],"categories_segments":[],"categories_sizes":[],"default_left":[1,1,1,1,1,1,1,1,1,1,1,1,1,1,1,0,0,0,0,0,0,0,0,0,0,0,0,0,0,0,0],"id":41,"left_children":[1,3,5,7,9,11,13,15,17,19,21,23,25,27,29,-1,-1,-1,-1,-1,-1,-1,-1,-1,-1,-1,-1,-1,-1,-1,-1],"loss_changes":[4.1741478E1,9.226592E0,5.8819733E0,1.8889046E0,9.408603E-1,4.5188713E-1,2.4790802E0,5.0764275E-1,5.242553E-1,5.955291E-1,1.035517E0,7.1260214E-2,2.843647E-1,9.157944E-1,2.4210014E0,0E0,0E0,0E0,0E0,0E0,0E0,0E0,0E0,0E0,0E0,0E0,0E0,0E0,0E0,0E0,0E0],"parents":[2147483647,0,0,1,1,2,2,3,3,4,4,5,5,6,6,7,7,8,8,9,9,10,10,11,11,12,12,13,13,14,14],"right_children":[2,4,6,8,10,12,14,16,18,20,22,24,26,28,30,-1,-1,-1,-1,-1,-1,-1,-1,-1,-1,-1,-1,-1,-1,-1,-1],"split_conditions":[3.55E1,2.85E1,3.85E1,2.45E1,3.25E1,3.75E1,4.05E1,1.5E0,2.65E1,1.5E0,3.35E1,3.65E1,1.5E0,1.5E0,4.15E1,-7.202213E-2,3.1971335E-4,-2.3421425E-2,-4.4511463E-2,-1.3712491E-2,-2.875335E-2,-1.6276857E-4,-1.0978822E-2,4.307763E-3,5.9390133E-3,8.137391E-3,-7.1349647E-4,1.1298194E-2,-1.5468267E-2,1.9602131E-2,1.0947109E-2],"split_indices":[3,3,3,3,3,3,3,2,3,2,3,3,2,2,3,0,0,0,0,0,0,0,0,0,0,0,0,0,0,0,0],"split_type":[0,0,0,0,0,0,0,0,0,0,0,0,0,0,0,0,0,0,0,0,0,0,0,0,0,0,0,0,0,0,0],"sum_hessian":[8.922E3,7.15E2,8.207E3,8.1E1,6.34E2,2.824E3,5.383E3,2.5E1,5.6E1,1.45E2,4.89E2,1.217E3,1.607E3,4.022E3,1.361E3,2.4E1,1E0,2.7E1,2.9E1,1.09E2,3.6E1,1.16E2,3.73E2,4.3E2,7.87E2,1.57E3,3.7E1,4.01E3,1.2E1,8.19E2,5.42E2],"tree_param":{"num_deleted":"0","num_feature":"4","num_nodes":"31","size_leaf_vector":"0"}},{"base_weights":[7.716901E-2,-1.9856505E-1,8.749471E-2,-5.983032E-1,-1.6838786E-1,7.63724E-2,1.4791973E-1,-6.888612E-1,2.0485115E-1,-2.4238427E-1,-1.0217474E-1,-1.8896868E-3,8.026921E-2,1.5084219E-1,-2.5059056E-1,-1.546344E-1,-4.9158847E-1,-1.4845031E-1,-7.4859455E-2,6.8649126E-4,-2.9322663E-1,6.406543E-2,9.217381E-2,1.75888E-1,1.12431094E-1],"categories":[],"categories_nodes":[],"categories_segments":[],"categories_sizes":[],"default_left":[1,1,1,1,1,1,1,0,0,1,1,1,1,1,0,0,0,0,0,0,0,0,0,0,0],"id":42,"left_children":[1,3,5,7,9,11,13,-1,-1,15,17,19,21,23,-1,-1,-1,-1,-1,-1,-1,-1,-1,-1,-1],"loss_changes":[2.5154827E1,3.747342E0,5.7086563E0,1.7412186E0,1.4352951E0,2.1929054E0,1.5774384E0,0E0,0E0,2.9854527E0,1.8986785E-1,2.5688457E-1,1.3152657E0,1.2433796E0,0E0,0E0,0E0,0E0,0E0,0E0,0E0,0E0,0E0,0E0,0E0],"parents":[2147483647,0,0,1,1,2,2,3,3,4,4,5,5,6,6,9,9,10,10,11,11,12,12,13,13],"right_children":[2,4,6,8,10,12,14,-1,-1,16,18,20,22,24,-1,-1,-1,-1,-1,-1,-1,-1,-1,-1,-1],"split_conditions":[3.35E1,2.45E1,4.05E1,1.5E0,3.15E1,3.55E1,4.65E1,-6.888612E-2,2.0485116E-2,3.05E1,3.25E1,2.5E0,3.85E1,4.15E1,-2.5059057E-2,-1.5463441E-2,-4.915885E-2,-1.4845031E-2,-7.4859457E-3,6.8649126E-5,-2.9322663E-2,6.406543E-3,9.217381E-3,1.75888E-2,1.124311E-2],"split_indices":[3,3,3,2,3,3,3,0,0,3,3,2,3,3,0,0,0,0,0,0,0,0,0,0,0],"split_type":[0,0,0,0,0,0,0,0,0,0,0,0,0,0,0,0,0,0,0,0,0,0,0,0,0],"sum_hessian":[8.828E3,3.18E2,8.51E3,2.1E1,2.97E2,7.189E3,1.321E3,1.9E1,2E0,1.39E2,1.58E2,3.41E2,6.848E3,1.312E3,9E0,1.04E2,3.5E1,5.7E1,1.01E2,3.39E2,2E0,2.903E3,3.945E3,7.92E2,5.2E2],"tree_param":{"num_deleted":"0","num_feature":"4","num_nodes":"25","size_leaf_vector":"0"}},{"base_weights":[6.6206634E-2,-9.770697E-2,8.946325E-2,-3.3850923E-1,-5.7554793E-2,6.547142E-2,1.2633298E-1,-2.183157E-1,-4.377518E-1,-1.4304021E-1,-5.1383436E-2,5.247494E-2,7.805883E-2,9.422999E-2,1.5892504E-1,-4.5550052E-2,-2.7402902E-1,-5.145947E-1,-3.0735233E-1,-2.9578477E-2,-7.0609234E-2,7.470129E-2,2.7490955E-2,3.9893307E-2,1.2310165E-1,1.1391392E-1,3.0623976E-4,1.1105097E-1,2.1654701E-1],"categories":[],"categories_nodes":[],"categories_segments":[],"categories_sizes":[],"default_left":[1,1,1,1,1,1,1,1,1,0,1,1,1,1,1,0,0,0,0,0,0,0,0,0,0,0,0,0,0],"id":43,"left_children":[1,3,5,7,9,11,13,15,17,-1,19,21,23,25,27,-1,-1,-1,-1,-1,-1,-1,-1,-1,-1,-1,-1,-1,-1],"loss_changes":[3.37418E1,1.0616127E1,6.8471603E0,1.7771778E0,4.9066782E-1,7.642956E-1,3.1804352E0,6.901686E-1,6.9356155E-1,0E0,3.676617E-1,1.282917E0,4.093382E0,2.8489494E0,4.1524696E0,0E0,0E0,0E0,0E0,0E0,0E0,0E0,0E0,0E0,0E0,0E0,0E0,0E0,0E0],"parents":[2147483647,0,0,1,1,2,2,3,3,4,4,5,5,6,6,7,7,8,8,10,10,11,11,12,12,13,13,14,14],"right_children":[2,4,6,8,10,12,14,16,18,-1,20,22,24,26,28,-1,-1,-1,-1,-1,-1,-1,-1,-1,-1,-1,-1,-1,-1],"split_conditions":[3.65E1,3.15E1,3.95E1,5E-1,3.25E1,5E-1,5E-1,2.55E1,2.95E1,-1.4304021E-2,5E-1,3.85E1,3.85E1,4.15E1,4.05E1,-4.555005E-3,-2.7402902E-2,-5.145947E-2,-3.0735234E-2,-2.9578477E-3,-7.0609236E-3,7.4701286E-3,2.7490954E-3,3.989331E-3,1.2310165E-2,1.1391393E-2,3.0623978E-5,1.1105097E-2,2.16547E-2],"split_indices":[3,3,3,0,3,0,0,3,3,0,0,3,3,3,3,0,0,0,0,0,0,0,0,0,0,0,0,0,0],"split_type":[0,0,0,0,0,0,0,0,0,0,0,0,0,0,0,0,0,0,0,0,0,0,0,0,0,0,0,0,0],"sum_hessian":[8.848E3,1.099E3,7.749E3,1.56E2,9.43E2,4.696E3,3.053E3,7.2E1,8.4E1,6.2E1,8.81E2,2.313E3,2.383E3,1.54E3,1.513E3,1.8E1,5.4E1,5.1E1,3.3E1,4.14E2,4.67E2,1.223E3,1.09E3,1.291E3,1.092E3,1.273E3,2.67E2,8.28E2,6.85E2],"tree_param":{"num_deleted":"0","num_feature":"4","num_nodes":"29","size_leaf_vector":"0"}},{"base_weights":[5.9385076E-2,6.275637E-2,-4.185411E-2,5.4928932E-2,9.061833E-2,-2.6869497E-1,1.0825042E-3,2.5176728E-1,5.374998E-2,1.4353666E-1,6.1629068E-2,-1.6040176E-2,-3.9042988E-1,2.1442632E-1,-1.8923312E-2,-6.0273122E-2,3.4430397E-1,3.7730664E-2,6.1514266E-2,1.624543E-1,1.24641955E-1,5.6449406E-2,2.1020968E-1,-4.116376E-1,3.3738422E-1,-5.420502E-1,-1.9256486E-1,1.4359547E-1,2.7798072E-1,-5.9686538E-2,5.81423E-2],"categories":[],"categories_nodes":[],"categories_segments":[],"categories_sizes":[],"default_left":[1,1,1,1,1,1,1,1,1,1,1,1,1,1,1,0,0,0,0,0,0,0,0,0,0,0,0,0,0,0,0],"id":44,"left_children":[1,3,5,7,9,11,13,15,17,19,21,23,25,27,29,-1,-1,-1,-1,-1,-1,-1,-1,-1,-1,-1,-1,-1,-1,-1,-1],"loss_changes":[3.0569801E0,1.8838768E0,2.8150868E0,1.5561428E0,2.9028053E0,1.408555E0,1.0454783E0,1.1757596E0,8.341255E-1,2.1959496E-1,9.3319845E-1,2.3759007E0,8.2563114E-1,5.4617047E-2,7.0715356E-1,0E0,0E0,0E0,0E0,0E0,0E0,0E0,0E0,0E0,0E0,0E0,0E0,0E0,0E0,0E0,0E0],"parents":[2147483647,0,0,1,1,2,2,3,3,4,4,5,5,6,6,7,7,8,8,9,9,10,10,11,11,12,12,13,13,14,14],"right_children":[2,4,6,8,10,12,14,16,18,20,22,24,26,28,30,-1,-1,-1,-1,-1,-1,-1,-1,-1,-1,-1,-1,-1,-1,-1,-1],"split_conditions":[1.5E0,3.25E1,2.25E1,1.55E1,3.45E1,1.95E1,2.45E1,1.45E1,2.25E1,3.35E1,4.25E1,1.85E1,2.15E1,2.35E1,3.45E1,-6.0273125E-3,3.4430396E-2,3.7730664E-3,6.1514266E-3,1.624543E-2,1.24641955E-2,5.644941E-3,2.102097E-2,-4.116376E-2,3.3738423E-2,-5.420502E-2,-1.9256486E-2,1.4359548E-2,2.7798072E-2,-5.968654E-3,5.81423E-3],"split_indices":[2,1,1,1,1,1,1,1,1,1,1,1,1,1,1,0,0,0,0,0,0,0,0,0,0,0,0,0,0,0,0],"split_type":[0,0,0,0,0,0,0,0,0,0,0,0,0,0,0,0,0,0,0,0,0,0,0,0,0,0,0,0,0,0,0],"sum_hessian":[8.948E3,8.66E3,2.88E2,6.763E3,1.897E3,4.5E1,2.43E2,3.9E1,6.724E3,6.7E2,1.227E3,1.5E1,3E1,2E1,2.23E2,9E0,3E1,2.197E3,4.527E3,3.31E2,3.39E2,1.187E3,4E1,7E0,8E0,1.6E1,1.4E1,1.1E1,9E0,1.46E2,7.7E1],"tree_param":{"num_deleted":"0","num_feature":"4","num_nodes":"31","size_leaf_vector":"0"}},{"base_weights":[6.1216414E-2,4.5922767E-2,7.581943E-2,4.8022352E-2,-1.7554246E-2,7.5038545E-2,9.98937E-2,-2.1743061E-2,2.8443998E-1,1.0400729E-1,3.5604917E-2,-1.5017378E-2,-1.3083968E-1,1.4885902E-2,1.1103803E-1],"categories":[],"categories_nodes":[],"categories_segments":[],"categories_sizes":[],"default_left":[1,1,1,0,1,0,1,1,0,0,1,0,0,0,0],"id":45,"left_children":[1,3,5,-1,7,-1,9,11,-1,-1,13,-1,-1,-1,-1],"loss_changes":[1.9984779E0,5.847225E-1,7.868004E-2,0E0,1.8454933E-1,0E0,3.358543E-2,1.0076004E-1,0E0,0E0,1.3976099E-2,0E0,0E0,0E0,0E0],"parents":[2147483647,0,0,1,1,2,2,4,4,6,6,7,7,10,10],"right_children":[2,4,6,-1,8,-1,10,12,-1,-1,14,-1,-1,-1,-1],"split_conditions":[5E-1,1.5E0,1.5E0,4.8022354E-3,3.5E0,7.5038546E-3,2.5E0,2.5E0,2.8443998E-2,1.0400729E-2,3.5E0,-1.5017379E-3,-1.3083967E-2,1.4885903E-3,1.1103803E-2],"split_indices":[0,2,2,0,2,0,2,2,0,0,2,0,0,0,0],"split_type":[0,0,0,0,0,0,0,0,0,0,0,0,0,0,0],"sum_hessian":[8.963E3,4.38E3,4.583E3,4.24E3,1.4E2,4.443E3,1.4E2,1.39E2,1E0,1.31E2,9E0,1.32E2,7E0,8E0,1E0],"tree_param":{"num_deleted":"0","num_feature":"4","num_nodes":"15","size_leaf_vector":"0"}},{"base_weights":[4.769458E-2,3.8111392E-2,1.05552964E-1,4.214277E-2,-9.921924E-2,9.63188E-2,2.6392806E-1,-4.76363E-3,5.2150037E-2,1.0608647E0,-1.0931446E-1,1.09184526E-1,-1.1513625E-1,2.2831571E-1,6.8122554E-1,1.1454375E-2,-4.0525954E-2,5.669515E-2,4.222195E-2,-6.868513E-2,-2.8502092E-1,1.0148646E-1,2.1299163E-1,-7.158742E-2,-8.1579506E-1,1.9955516E-1,7.65769E-1,1.110789E0,2.4586916E-2],"categories":[],"categories_nodes":[],"categories_segments":[],"categories_sizes":[],"default_left":[1,1,1,1,1,1,1,1,1,0,1,1,1,1,1,0,0,0,0,0,0,0,0,0,0,0,0,0,0],"id":46,"left_children":[1,3,5,7,9,11,13,15,17,-1,19,21,23,25,27,-1,-1,-1,-1,-1,-1,-1,-1,-1,-1,-1,-1,-1,-1],"loss_changes":[4.9967213E0,4.28874E0,1.847992E0,3.5297031E0,2.7041662E0,3.3098469E0,8.847313E-1,7.677957E-1,2.7724266E-1,0E0,1.550967E0,8.917713E-1,2.0775E0,8.673787E-1,1.383029E0,0E0,0E0,0E0,0E0,0E0,0E0,0E0,0E0,0E0,0E0,0E0,0E0,0E0,0E0],"parents":[2147483647,0,0,1,1,2,2,3,3,4,4,5,5,6,6,7,7,8,8,10,10,11,11,12,12,13,13,14,14],"right_children":[2,4,6,8,10,12,14,16,18,-1,20,22,24,26,28,-1,-1,-1,-1,-1,-1,-1,-1,-1,-1,-1,-1,-1,-1],"split_conditions":[3.45E1,1.5E0,4.15E1,2.05E1,1.65E1,4.05E1,1.5E0,1.95E1,2.95E1,1.0608647E-1,3.15E1,3.95E1,1.5E0,4.65E1,4.6E1,1.1454376E-3,-4.0525957E-3,5.669515E-3,4.222195E-3,-6.868513E-3,-2.8502092E-2,1.0148646E-2,2.1299163E-2,-7.1587423E-3,-8.157951E-2,1.9955516E-2,7.65769E-2,1.11078896E-1,2.4586916E-3],"split_indices":[1,2,1,1,1,1,2,1,1,0,1,1,2,1,1,0,0,0,0,0,0,0,0,0,0,0,0,0,0],"split_type":[0,0,0,0,0,0,0,0,0,0,0,0,0,0,0,0,0,0,0,0,0,0,0,0,0,0,0,0,0],"sum_hessian":[9.018E3,7.738E3,1.28E3,7.518E3,2.2E2,1.211E3,6.9E1,1.322E3,6.196E3,1E0,2.19E2,1.142E3,6.9E1,6.5E1,4E0,9.1E2,4.12E2,4.247E3,1.949E3,1.79E2,4E1,1.065E3,7.7E1,6.6E1,3E0,6.3E1,2E0,2E0,2E0],"tree_param":{"num_deleted":"0","num_feature":"4","num_nodes":"29","size_leaf_vector":"0"}},{"base_weights":[5.2838318E-2,4.1603323E-2,1.1943839E-1,-1.4205659E-2,4.589954E-2,1.2259075E-1,-2.950623E-1,4.7831625E-2,-3.2738894E-2,3.730537E-2,5.7740435E-2,1.14846446E-1,3.028202E-1,-6.0790825E-1,3.2618368E-1,3.2089133E-2,1.0078216E0,-6.2267546E-2,-1.4398466E-2,4.6690296E-2,7.5914282E-3,9.293308E-2,4.1021477E-2,1.16154894E-1,-3.1392485E-1,2.6710823E-1,1.0620654E0,5.7452536E-1,5.1894665E-2],"categories":[],"categories_nodes":[],"categories_segments":[],"categories_sizes":[],"default_left":[1,1,1,1,1,1,1,1,1,1,1,1,1,0,1,0,0,0,0,0,0,0,0,0,0,0,0,0,0],"id":47,"left_children":[1,3,5,7,9,11,13,15,17,19,21,23,25,-1,27,-1,-1,-1,-1,-1,-1,-1,-1,-1,-1,-1,-1,-1,-1],"loss_changes":[6.664196E0,1.8295975E0,1.7165318E0,6.2933034E-1,7.1863174E-1,1.7475986E0,2.1418326E0,1.8718517E0,2.2710365E-1,1.1449366E0,1.7478075E0,7.242832E-1,1.1262488E0,0E0,2.4265477E-1,0E0,0E0,0E0,0E0,0E0,0E0,0E0,0E0,0E0,0E0,0E0,0E0,0E0,0E0],"parents":[2147483647,0,0,1,1,2,2,3,3,4,4,5,5,6,6,7,7,8,8,9,9,10,10,11,11,12,12,14,14],"right_children":[2,4,6,8,10,12,14,16,18,20,22,24,26,-1,28,-1,-1,-1,-1,-1,-1,-1,-1,-1,-1,-1,-1,-1,-1],"split_conditions":[3.45E1,1.85E1,4.45E1,1.65E1,2.75E1,4.15E1,4.65E1,1.5E0,1.75E1,2.55E1,2.95E1,2.5E0,1.5E0,-6.0790826E-2,1.5E0,3.2089134E-3,1.00782156E-1,-6.2267547E-3,-1.4398466E-3,4.6690297E-3,7.5914286E-4,9.2933085E-3,4.1021476E-3,1.161549E-2,-3.1392485E-2,2.6710823E-2,1.0620654E-1,5.7452537E-2,5.1894668E-3],"split_indices":[1,1,1,1,1,1,1,2,1,1,1,2,2,0,2,0,0,0,0,0,0,0,0,0,0,0,0,0,0],"split_type":[0,0,0,0,0,0,0,0,0,0,0,0,0,0,0,0,0,0,0,0,0,0,0,0,0,0,0,0,0],"sum_hessian":[8.912E3,7.627E3,1.285E3,5.45E2,7.082E3,1.276E3,9E0,1.25E2,4.2E2,4.106E3,2.976E3,1.225E3,5.1E1,6E0,3E0,1.24E2,1E0,1.6E2,2.6E2,3.12E3,9.86E2,9.57E2,2.019E3,1.222E3,3E0,5E1,1E0,1E0,2E0],"tree_param":{"num_deleted":"0","num_feature":"4","num_nodes":"29","size_leaf_vector":"0"}},{"base_weights":[3.4843083E-2,2.794616E-2,1.17375396E-1,1.238405E-2,3.7916075E-2,1.2868811E-1,-5.55711E-2,-2.7515268E-1,1.2826826E-2,4.9414705E-2,2.2387836E-2,1.2594102E-1,6.764161E-1,-1.429836E-1,4.1440514E-1,1.7428074E-2,-1.4461911E-2,5.2025337E-2,-3.424202E-2,-2.0219011E-2,3.2797534E-2,1.3236193E-1,-4.0186983E-1,-4.8351288E-2,-3.36105E-1,6.0000736E-1,-3.49604E-1],"categories":[],"categories_nodes":[],"categories_segments":[],"categories_sizes":[],"default_left":[1,1,1,1,1,1,1,0,1,1,1,1,0,1,1,0,0,0,0,0,0,0,0,0,0,0,0],"id":48,"left_children":[1,3,5,7,9,11,13,-1,15,17,19,21,-1,23,25,-1,-1,-1,-1,-1,-1,-1,-1,-1,-1,-1,-1],"loss_changes":[5.0843983E0,1.279542E0,1.355176E0,4.1386455E-1,8.966608E-1,8.8832474E-1,1.8257706E0,0E0,4.044369E-1,6.3251114E-1,9.502491E-1,2.2391167E0,0E0,6.599433E-1,1.2023774E0,0E0,0E0,0E0,0E0,0E0,0E0,0E0,0E0,0E0,0E0,0E0,0E0],"parents":[2147483647,0,0,1,1,2,2,3,3,4,4,5,5,6,6,8,8,9,9,10,10,11,11,13,13,14,14],"right_children":[2,4,6,8,10,12,14,-1,16,18,20,22,-1,24,26,-1,-1,-1,-1,-1,-1,-1,-1,-1,-1,-1,-1],"split_conditions":[3.65E1,2.45E1,1.5E0,1.35E1,3.05E1,4.65E1,4.15E1,-2.7515268E-2,2.35E1,1.5E0,3.15E1,4.45E1,6.764161E-2,3.85E1,2.5E0,1.7428074E-3,-1.4461911E-3,5.2025337E-3,-3.4242019E-3,-2.021901E-3,3.2797535E-3,1.3236194E-2,-4.0186983E-2,-4.835129E-3,-3.36105E-2,6.0000736E-2,-3.49604E-2],"split_indices":[1,1,2,1,1,1,1,0,1,2,1,1,0,1,2,0,0,0,0,0,0,0,0,0,0,0,0],"split_type":[0,0,0,0,0,0,0,0,0,0,0,0,0,0,0,0,0,0,0,0,0,0,0,0,0,0,0],"sum_hessian":[8.937E3,8.249E3,6.88E2,3.222E3,5.027E3,6.46E2,4.2E1,4E0,3.218E3,2.887E3,2.14E3,6.44E2,2E0,3.6E1,6E0,2.754E3,4.64E2,2.8E3,8.7E1,4.2E2,1.72E3,6.37E2,7E0,2.5E1,1.1E1,5E0,1E0],"tree_param":{"num_deleted":"0","num_feature":"4","num_nodes":"27","size_leaf_vector":"0"}},{"base_weights":[4.0898204E-2,-1.526805E-1,4.5664866E-2,8.140399E-2,-2.8200844E-1,2.95609E-2,7.466104E-2,-2.657829E-1,2.6010865E-1,-4.6011996E-1,1.904485E-2,-1.4573925E-2,4.36385E-2,4.1053567E-2,1.15463175E-1,-5.0025475E-1,1.20744735E-1,8.383778E-1,1.1957841E-1,-2.3929E-1,-7.876828E-1,-1.9615719E-1,3.5631257E-1,6.283571E-2,-3.276252E-2,5.513228E-2,-5.5873115E-4,2.468948E-1,3.577001E-2,1.1767986E-1,-5.3494996E-1],"categories":[],"categories_nodes":[],"categories_segments":[],"categories_sizes":[],"default_left":[1,1,1,1,1,1,1,1,1,1,1,1,1,1,1,0,0,0,0,0,0,0,0,0,0,0,0,0,0,0,0],"id":49,"left_children":[1,3,5,7,9,11,13,15,17,19,21,23,25,27,29,-1,-1,-1,-1,-1,-1,-1,-1,-1,-1,-1,-1,-1,-1,-1,-1],"loss_changes":[8.329942E0,6.5923414E0,4.1088524E0,4.9085574E0,7.5157127E0,3.518508E0,4.3051205E0,2.507409E0,4.1254916E0,6.1770535E0,3.9166706E0,1.9309807E0,2.1808453E0,1.8672335E0,2.1088066E0,0E0,0E0,0E0,0E0,0E0,0E0,0E0,0E0,0E0,0E0,0E0,0E0,0E0,0E0,0E0,0E0],"parents":[2147483647,0,0,1,1,2,2,3,3,4,4,5,5,6,6,7,7,8,8,9,9,10,10,11,11,12,12,13,13,14,14],"right_children":[2,4,6,8,10,12,14,16,18,20,22,24,26,28,30,-1,-1,-1,-1,-1,-1,-1,-1,-1,-1,-1,-1,-1,-1,-1,-1],"split_conditions":[3.25E1,2.35E1,3.95E1,2.85E1,3.25E1,2.25E1,2.75E1,2.05E1,2.95E1,3.05E1,3.05E1,3.65E1,3.45E1,1.65E1,4.65E1,-5.0025474E-2,1.2074473E-2,8.383778E-2,1.1957842E-2,-2.3929E-2,-7.8768276E-2,-1.961572E-2,3.5631258E-2,6.283571E-3,-3.276252E-3,5.513228E-3,-5.5873115E-5,2.468948E-2,3.5770012E-3,1.1767986E-2,-5.3494997E-2],"split_indices":[3,1,3,3,1,1,1,1,3,3,3,3,1,1,3,0,0,0,0,0,0,0,0,0,0,0,0,0,0,0,0],"split_type":[0,0,0,0,0,0,0,0,0,0,0,0,0,0,0,0,0,0,0,0,0,0,0,0,0,0,0,0,0,0,0],"sum_hessian":[9.019E3,2.16E2,8.803E3,7.7E1,1.39E2,5.661E3,3.142E3,2.6E1,5.1E1,8.7E1,5.2E1,1.369E3,4.292E3,1.724E3,1.418E3,1.6E1,1E1,9E0,4.2E1,5.3E1,3.4E1,3.2E1,2E1,2.6E2,1.109E3,3.406E3,8.86E2,4.2E1,1.682E3,1.414E3,4E0],"tree_param":{"num_deleted":"0","num_feature":"4","num_nodes":"31","size_leaf_vector":"0"}},{"base_weights":[2.9851336E-2,2.964346E-2,3.936923E-1,2.3664592E-2,3.5358027E-2,2.566281E-2,-3.1691838E-2,3.4003887E-2,8.109558E-2,-2.882862E-2,-7.962617E-2,8.889044E-2,-4.88874E-2],"categories":[],"categories_nodes":[],"categories_segments":[],"categories_sizes":[],"default_left":[1,1,0,1,1,0,1,0,1,0,0,0,0],"id":50,"left_children":[1,3,-1,5,7,-1,9,-1,11,-1,-1,-1,-1],"loss_changes":[6.613946E-1,3.030758E-1,0E0,4.8198485E-1,2.7879953E-1,0E0,1.8565938E-2,0E0,1.3606155E-1,0E0,0E0,0E0,0E0],"parents":[2147483647,0,0,1,1,3,3,4,4,6,6,8,8],"right_children":[2,4,-1,6,8,-1,10,-1,12,-1,-1,-1,-1],"split_conditions":[3.5E0,5E-1,3.9369233E-2,1.5E0,1.5E0,2.566281E-3,2.5E0,3.4003889E-3,2.5E0,-2.8828622E-3,-7.962617E-3,8.889045E-3,-4.8887404E-3],"split_indices":[2,0,0,2,2,0,2,0,2,0,0,0,0],"split_type":[0,0,0,0,0,0,0,0,0,0,0,0,0],"sum_hessian":[8.898E3,8.894E3,4E0,4.349E3,4.545E3,4.198E3,1.51E2,4.416E3,1.29E2,1.44E2,7E0,1.22E2,7E0],"tree_param":{"num_deleted":"0","num_feature":"4","num_nodes":"13","size_leaf_vector":"0"}},{"base_weights":[3.7836116E-2,1.9983836E-2,5.7323605E-2,-2.8081702E-2,2.6278006E-2,5.0192747E-2,9.2400394E-2,6.0425135E-3,-6.661113E-2,8.992698E-2,1.987934E-2,6.350164E-2,4.1701157E-2,1.0232011E-1,-8.102475E-2,-4.040091E-2,4.276128E-2,-6.3756205E-2,-2.3124668E-1,8.3943196E-2,3.9764008E-1,2.3139948E-2,-1.1611723E-1,5.696041E-2,2.2842613E-1,1.5095876E-2,4.8526485E-2,1.4978053E-1,8.06682E-2,-3.4375146E-2,-6.4491147E-1],"categories":[],"categories_nodes":[],"categories_segments":[],"categories_sizes":[],"default_left":[1,1,1,1,1,1,1,1,1,1,1,1,1,1,1,0,0,0,0,0,0,0,0,0,0,0,0,0,0,0,0],"id":51,"left_children":[1,3,5,7,9,11,13,15,17,19,21,23,25,27,29,-1,-1,-1,-1,-1,-1,-1,-1,-1,-1,-1,-1,-1,-1,-1,-1],"loss_changes":[3.1441832E0,1.4286919E0,1.0764141E0,7.195909E-1,1.6981511E0,4.0352345E-1,1.2624097E0,4.9798307E-1,1.0605264E-1,6.6815186E-1,1.6850665E0,1.4951644E0,3.9822054E-1,6.969676E-1,1.0300345E0,0E0,0E0,0E0,0E0,0E0,0E0,0E0,0E0,0E0,0E0,0E0,0E0,0E0,0E0,0E0,0E0],"parents":[2147483647,0,0,1,1,2,2,3,3,4,4,5,5,6,6,7,7,8,8,9,9,10,10,11,11,12,12,13,13,14,14],"right_children":[2,4,6,8,10,12,14,16,18,20,22,24,26,28,30,-1,-1,-1,-1,-1,-1,-1,-1,-1,-1,-1,-1,-1,-1,-1,-1],"split_conditions":[2.75E1,1.85E1,3.65E1,1.75E1,1.95E1,3.05E1,1.5E0,1.65E1,1.5E0,1.5E0,1.5E0,1.5E0,3.15E1,3.75E1,4.3E1,-4.0400913E-3,4.276128E-3,-6.3756206E-3,-2.3124669E-2,8.39432E-3,3.976401E-2,2.3139948E-3,-1.1611723E-2,5.696041E-3,2.2842614E-2,1.5095876E-3,4.8526484E-3,1.4978053E-2,8.066821E-3,-3.4375146E-3,-6.4491145E-2],"split_indices":[1,1,1,1,1,1,2,1,2,2,2,2,1,1,1,0,0,0,0,0,0,0,0,0,0,0,0,0,0,0,0],"split_type":[0,0,0,0,0,0,0,0,0,0,0,0,0,0,0,0,0,0,0,0,0,0,0,0,0,0,0,0,0,0,0],"sum_hessian":[9.04E3,4.719E3,4.321E3,5.46E2,4.173E3,3.593E3,7.28E2,2.9E2,2.56E2,3.8E2,3.793E3,1.397E3,2.196E3,6.89E2,3.9E1,1.28E2,1.62E2,2.53E2,3E0,3.74E2,6E0,3.705E3,8.8E1,1.345E3,5.2E1,4.49E2,1.747E3,2.14E2,4.75E2,3.7E1,2E0],"tree_param":{"num_deleted":"0","num_feature":"4","num_nodes":"31","size_leaf_vector":"0"}},{"base_weights":[2.4679199E-2,-4.0759027E-1,2.944374E-2,-5.5418754E-1,9.453933E-2,-2.6235335E-2,3.68757E-2,-4.514983E-1,-7.8572017E-1,2.2269048E-1,-4.1134292E-1,2.9431257E-1,-3.5008967E-2,4.0327426E-2,-5.5778507E-2,-5.4805094E-1,-2.9333588E-1,-9.3571347E-1,-5.5066204E-1,6.001706E-2,8.1771153E-1,3.535654E-1,-3.1731614E-1,-1.0217277E-1,-2.8478622E-2,3.0616606E-2,5.6361686E-2,-1.0246837E-1,-7.00787E-3],"categories":[],"categories_nodes":[],"categories_segments":[],"categories_sizes":[],"default_left":[1,1,1,1,1,1,1,1,1,1,0,1,1,1,1,0,0,0,0,0,0,0,0,0,0,0,0,0,0],"id":52,"left_children":[1,3,5,7,9,11,13,15,17,19,-1,21,23,25,27,-1,-1,-1,-1,-1,-1,-1,-1,-1,-1,-1,-1,-1,-1],"loss_changes":[1.8513088E1,7.2662525E0,3.6780343E0,1.4522171E0,1.5826781E0,2.954855E0,2.509615E0,6.79142E-1,2.6039505E-1,1.7900114E0,0E0,1.1269324E0,4.4446516E-1,1.1752558E0,6.414225E-1,0E0,0E0,0E0,0E0,0E0,0E0,0E0,0E0,0E0,0E0,0E0,0E0,0E0,0E0],"parents":[2147483647,0,0,1,1,2,2,3,3,4,4,5,5,6,6,7,7,8,8,9,9,11,11,12,12,13,13,14,14],"right_children":[2,4,6,8,10,12,14,16,18,20,-1,22,24,26,28,-1,-1,-1,-1,-1,-1,-1,-1,-1,-1,-1,-1,-1,-1],"split_conditions":[2.95E1,1.5E0,3.65E1,2.75E1,2.85E1,3.05E1,4.25E1,2.55E1,2.85E1,2.75E1,-4.1134294E-2,2.5E0,3.25E1,3.95E1,4.35E1,-5.4805096E-2,-2.933359E-2,-9.357135E-2,-5.5066206E-2,6.0017062E-3,8.177116E-2,3.535654E-2,-3.1731617E-2,-1.0217277E-2,-2.8478622E-3,3.0616606E-3,5.6361686E-3,-1.02468375E-2,-7.00787E-4],"split_indices":[3,2,3,3,3,3,3,3,3,3,0,2,3,3,3,0,0,0,0,0,0,0,0,0,0,0,0,0,0],"split_type":[0,0,0,0,0,0,0,0,0,0,0,0,0,0,0,0,0,0,0,0,0,0,0,0,0,0,0,0,0],"sum_hessian":[8.982E3,9.7E1,8.885E3,7.5E1,2.2E1,1.046E3,7.839E3,5.4E1,2.1E1,1.8E1,4E0,2.7E1,1.019E3,7.558E3,2.81E2,3.2E1,2.2E1,1.1E1,1E1,1.5E1,3E0,2.5E1,2E0,8.9E1,9.3E2,4.709E3,2.849E3,1.43E2,1.38E2],"tree_param":{"num_deleted":"0","num_feature":"4","num_nodes":"29","size_leaf_vector":"0"}},{"base_weights":[2.1516975E-2,-8.303556E-2,3.0791229E-2,-1.0810909E-2,-1.5424676E-1,2.1704914E-2,7.155893E-2,-4.9187443E-1,1.415521E-3,-4.470598E-1,-1.1806759E-1,1.4530054E-1,1.9834915E-2,3.11921E-2,1.5247312E-1,-5.943701E-1,1.6404557E-1,2.2118986E-1,-1.7350018E-2,-8.604431E-1,-1.3561915E-1,5.254708E-2,-1.6206656E-1,1.3939077E0,1.055952E-1,-4.534102E-2,2.3644786E-2,-1.1672687E-1,4.3484922E-2,2.030078E-1,-3.6324985E-2],"categories":[],"categories_nodes":[],"categories_segments":[],"categories_sizes":[],"default_left":[1,1,1,1,1,1,1,1,1,1,1,1,1,1,1,0,0,0,0,0,0,0,0,0,0,0,0,0,0,0,0],"id":53,"left_children":[1,3,5,7,9,11,13,15,17,19,21,23,25,27,29,-1,-1,-1,-1,-1,-1,-1,-1,-1,-1,-1,-1,-1,-1,-1,-1],"loss_changes":[8.675078E0,3.7477288E0,3.0418844E0,2.1357493E0,3.8351173E0,1.5502691E0,4.88482E0,7.025645E-1,1.4679229E0,5.0330815E0,2.4707694E0,4.810446E0,1.6451454E0,1.8234177E0,4.7587175E0,0E0,0E0,0E0,0E0,0E0,0E0,0E0,0E0,0E0,0E0,0E0,0E0,0E0,0E0,0E0,0E0],"parents":[2147483647,0,0,1,1,2,2,3,3,4,4,5,5,6,6,7,7,8,8,9,9,10,10,11,11,12,12,13,13,14,14],"right_children":[2,4,6,8,10,12,14,16,18,20,22,24,26,28,30,-1,-1,-1,-1,-1,-1,-1,-1,-1,-1,-1,-1,-1,-1,-1,-1],"split_conditions":[3.55E1,2.65E1,3.35E1,2.35E1,2.75E1,1.65E1,3.95E1,2.55E1,1.75E1,3.35E1,2.95E1,3.65E1,1.85E1,3.65E1,3.85E1,-5.9437014E-2,1.6404558E-2,2.2118986E-2,-1.7350018E-3,-8.604431E-2,-1.3561915E-2,5.2547078E-3,-1.6206658E-2,1.3939077E-1,1.0559521E-2,-4.534102E-3,2.3644788E-3,-1.1672687E-2,4.3484922E-3,2.0300781E-2,-3.6324987E-3],"split_indices":[3,1,1,3,1,1,3,1,1,3,1,3,1,3,1,0,0,0,0,0,0,0,0,0,0,0,0,0,0,0,0],"split_type":[0,0,0,0,0,0,0,0,0,0,0,0,0,0,0,0,0,0,0,0,0,0,0,0,0,0,0,0,0,0,0],"sum_hessian":[8.943E3,7.28E2,8.215E3,3.62E2,3.66E2,6.719E3,1.496E3,8E0,3.54E2,3.9E1,3.27E2,9.9E1,6.62E3,9.99E2,4.97E2,7E0,1E0,2.7E1,3.27E2,1.6E1,2.3E1,6.7E1,2.6E2,2E0,9.7E1,3.65E2,6.255E3,7.6E1,9.23E2,3.92E2,1.05E2],"tree_param":{"num_deleted":"0","num_feature":"4","num_nodes":"31","size_leaf_vector":"0"}},{"base_weights":[1.908267E-2,1.0090567E-3,3.8845804E-2,-5.6579087E-2,4.608907E-3,8.7713555E-2,2.3697024E-2,3.2699518E-2,-1.2951927E-1,1.6319362E-2,-1.8703315E-2,7.157812E-2,1.023325E-1,-6.693174E-3,5.1496007E-2,-2.2438413E-2,6.902214E-2,-2.05129E-2,-2.1166928E-1,-4.1930494E-3,3.6417134E-2,-9.994486E-3,-3.748834E-2,-3.813153E-2,1.8609807E-1,1.8849914E-1,1.6104624E-2,6.569439E-4,-1.1958243E-1,-2.9463002E-3,7.2767034E-2],"categories":[],"categories_nodes":[],"categories_segments":[],"categories_sizes":[],"default_left":[1,1,1,1,1,1,1,1,1,1,1,1,1,1,1,0,0,0,0,0,0,0,0,0,0,0,0,0,0,0,0],"id":54,"left_children":[1,3,5,7,9,11,13,15,17,19,21,23,25,27,29,-1,-1,-1,-1,-1,-1,-1,-1,-1,-1,-1,-1,-1,-1,-1,-1],"loss_changes":[3.183249E0,9.654899E-1,3.1493216E0,1.7885227E0,1.19685E0,2.3020935E-1,2.7468433E0,2.4989028E-1,1.3478441E0,1.2031091E0,2.3945647E-1,6.062917E0,3.9051275E0,1.289509E0,1.9665728E0,0E0,0E0,0E0,0E0,0E0,0E0,0E0,0E0,0E0,0E0,0E0,0E0,0E0,0E0,0E0,0E0],"parents":[2147483647,0,0,1,1,2,2,3,3,4,4,5,5,6,6,7,7,8,8,9,9,10,10,11,11,12,12,13,13,14,14],"right_children":[2,4,6,8,10,12,14,16,18,20,22,24,26,28,30,-1,-1,-1,-1,-1,-1,-1,-1,-1,-1,-1,-1,-1,-1,-1,-1],"split_conditions":[2.75E1,1.75E1,2.95E1,5E-1,2.45E1,2.85E1,5E-1,1.65E1,1.65E1,5E-1,2.65E1,5E-1,5E-1,3.95E1,3.15E1,-2.2438413E-3,6.902214E-3,-2.05129E-3,-2.1166928E-2,-4.1930494E-4,3.6417134E-3,-9.994487E-4,-3.7488341E-3,-3.8131531E-3,1.8609807E-2,1.8849915E-2,1.6104624E-3,6.569439E-5,-1.1958243E-2,-2.9463004E-4,7.2767036E-3],"split_indices":[1,1,1,0,1,1,0,1,1,0,1,0,0,1,1,0,0,0,0,0,0,0,0,0,0,0,0,0,0,0,0],"split_type":[0,0,0,0,0,0,0,0,0,0,0,0,0,0,0,0,0,0,0,0,0,0,0,0,0,0,0,0,0,0,0],"sum_hessian":[8.911E3,4.655E3,4.256E3,2.73E2,4.382E3,1.006E3,3.25E3,1.23E2,1.5E2,2.917E3,1.465E3,4.81E2,5.25E2,1.553E3,1.697E3,4.9E1,7.4E1,6.5E1,8.5E1,1.444E3,1.473E3,1.002E3,4.63E2,2.46E2,2.35E2,2.62E2,2.63E2,1.459E3,9.4E1,4.77E2,1.22E3],"tree_param":{"num_deleted":"0","num_feature":"4","num_nodes":"31","size_leaf_vector":"0"}},{"base_weights":[5.671527E-3,-1.9220974E-1,1.074417E-2,-2.9284876E-2,-3.5055E-1,-1.5660876E-2,3.6363304E-2,-3.008439E-1,1.050747E-1,-4.1948712E-1,-2.552995E-1,-9.315713E-3,-1.11088626E-1,-6.9774007E-3,6.455762E-2,-1.8156824E-1,-3.4432328E-1,2.4333182E-1,-1.22620426E-1,-3.2061434E-1,-8.2121795E-1,-1.6380695E-1,-2.93537E-1,-6.1781507E-2,3.3418231E-3,-1.23813756E-1,-6.4329146E-3,-1.9057101E-4,-1.5223243E-2,6.9078125E-2,-2.7839082E-1],"categories":[],"categories_nodes":[],"categories_segments":[],"categories_sizes":[],"default_left":[1,1,1,1,1,1,1,1,1,1,1,1,1,1,1,0,0,0,0,0,0,0,0,0,0,0,0,0,0,0,0],"id":55,"left_children":[1,3,5,7,9,11,13,15,17,19,21,23,25,27,29,-1,-1,-1,-1,-1,-1,-1,-1,-1,-1,-1,-1,-1,-1,-1,-1],"loss_changes":[8.955793E0,5.742591E0,5.884544E0,4.0816193E0,6.348963E-1,2.5929475E0,5.3954105E0,1.2936497E-1,2.3908727E0,2.278802E0,1.2683892E-1,2.6685107E0,3.5478282E-1,9.74289E-2,4.166279E0,0E0,0E0,0E0,0E0,0E0,0E0,0E0,0E0,0E0,0E0,0E0,0E0,0E0,0E0,0E0,0E0],"parents":[2147483647,0,0,1,1,2,2,3,3,4,4,5,5,6,6,7,7,8,8,9,9,10,10,11,11,12,12,13,13,14,14],"right_children":[2,4,6,8,10,12,14,16,18,20,22,24,26,28,30,-1,-1,-1,-1,-1,-1,-1,-1,-1,-1,-1,-1,-1,-1,-1,-1],"split_conditions":[3.25E1,5E-1,5E-1,2.85E1,3.05E1,4.15E1,3.85E1,2.45E1,3.15E1,2.95E1,3.15E1,3.75E1,4.45E1,3.75E1,4.45E1,-1.8156825E-2,-3.443233E-2,2.4333183E-2,-1.2262043E-2,-3.2061435E-2,-8.21218E-2,-1.6380696E-2,-2.9353699E-2,-6.178151E-3,3.3418232E-4,-1.2381376E-2,-6.4329145E-4,-1.90571E-5,-1.5223244E-3,6.907813E-3,-2.7839083E-2],"split_indices":[3,0,0,3,3,3,3,3,3,3,3,3,3,3,3,0,0,0,0,0,0,0,0,0,0,0,0,0,0,0,0],"split_type":[0,0,0,0,0,0,0,0,0,0,0,0,0,0,0,0,0,0,0,0,0,0,0,0,0,0,0,0,0,0,0],"sum_hessian":[8.919E3,2.22E2,8.697E3,1.1E2,1.12E2,4.283E3,4.414E3,3.6E1,7.4E1,6.3E1,4.9E1,4.017E3,2.66E2,1.74E3,2.674E3,1.1E1,2.5E1,4.6E1,2.8E1,5.2E1,1.1E1,1.6E1,3.3E1,7.8E2,3.237E3,2.37E2,2.9E1,9.55E2,7.85E2,2.64E3,3.4E1],"tree_param":{"num_deleted":"0","num_feature":"4","num_nodes":"31","size_leaf_vector":"0"}},{"base_weights":[2.3201194E-2,1.4078918E-2,3.1831168E-2,1.3799335E-2,4.171112E-1,3.0040236E-2,8.3273955E-2,1.4361874E-2,-3.392767E-1,7.600365E-2,1.9276959E-1,1.5420725E-2,-2.1711566E-2],"categories":[],"categories_nodes":[],"categories_segments":[],"categories_sizes":[],"default_left":[1,1,1,1,0,0,1,1,0,0,0,0,0],"id":56,"left_children":[1,3,5,7,-1,-1,9,11,-1,-1,-1,-1,-1],"loss_changes":[7.0807743E-1,4.8744875E-1,4.235096E-1,8.738309E-1,0E0,0E0,1.0873914E-1,1.6721469E-1,0E0,0E0,0E0,0E0,0E0],"parents":[2147483647,0,0,1,1,2,2,3,3,6,6,7,7],"right_children":[2,4,6,8,-1,-1,10,12,-1,-1,-1,-1,-1],"split_conditions":[5E-1,3.5E0,1.5E0,2.5E0,4.1711118E-2,3.0040236E-3,2.5E0,1.5E0,-3.392767E-2,7.6003647E-3,1.927696E-2,1.5420725E-3,-2.1711567E-3],"split_indices":[0,2,2,2,0,0,2,2,0,0,0,0,0],"split_type":[0,0,0,0,0,0,0,0,0,0,0,0,0],"sum_hessian":[8.999E3,4.376E3,4.623E3,4.374E3,2E0,4.469E3,1.54E2,4.368E3,6E0,1.46E2,8E0,4.244E3,1.24E2],"tree_param":{"num_deleted":"0","num_feature":"4","num_nodes":"13","size_leaf_vector":"0"}},{"base_weights":[1.5985215E-2,-2.2557601E-2,4.2441156E-2,-2.6968816E-1,-1.5832284E-2,1.2644777E-2,7.097384E-2,-1.459205E-1,-3.6324966E-1,-3.949365E-2,5.470188E-3,-1.4371781E-2,3.2134328E-2,7.214132E-2,-5.722581E-1,-2.1752803E-1,8.21676E-2,-4.3916306E-1,-2.8788015E-1,-1.3878514E-1,-2.7653158E-2,-6.061357E-2,1.8888576E-2,5.0183274E-2,-5.5909313E-2,6.2421124E-2,1.0055805E-1],"categories":[],"categories_nodes":[],"categories_segments":[],"categories_sizes":[],"default_left":[1,1,1,1,1,1,1,1,1,1,1,0,1,1,0,0,0,0,0,0,0,0,0,0,0,0,0],"id":57,"left_children":[1,3,5,7,9,11,13,15,17,19,21,-1,23,25,-1,-1,-1,-1,-1,-1,-1,-1,-1,-1,-1,-1,-1],"loss_changes":[9.083304E0,6.0222554E0,4.489705E0,1.0586634E0,1.7800012E0,1.3615693E0,2.0673714E0,7.201853E-1,1.8253756E-1,1.963042E0,1.6495899E0,0E0,2.3896263E0,7.3784924E-1,0E0,0E0,0E0,0E0,0E0,0E0,0E0,0E0,0E0,0E0,0E0,0E0,0E0],"parents":[2147483647,0,0,1,1,2,2,3,3,4,4,5,5,6,6,7,7,8,8,9,9,10,10,12,12,13,13],"right_children":[2,4,6,8,10,12,14,16,18,20,22,-1,24,26,-1,-1,-1,-1,-1,-1,-1,-1,-1,-1,-1,-1,-1],"split_conditions":[3.85E1,2.95E1,5E-1,5E-1,5E-1,3.95E1,4.65E1,2.85E1,2.65E1,3.45E1,3.55E1,-1.4371781E-3,4.15E1,4.05E1,-5.7225812E-2,-2.1752803E-2,8.21676E-3,-4.3916307E-2,-2.8788015E-2,-1.3878514E-2,-2.7653158E-3,-6.061357E-3,1.8888576E-3,5.0183274E-3,-5.5909315E-3,6.2421127E-3,1.0055806E-2],"split_indices":[3,3,0,0,0,3,3,3,3,3,3,0,3,3,0,0,0,0,0,0,0,0,0,0,0,0,0],"split_type":[0,0,0,0,0,0,0,0,0,0,0,0,0,0,0,0,0,0,0,0,0,0,0,0,0,0,0],"sum_hessian":[8.906E3,3.625E3,5.281E3,9.5E1,3.53E3,2.584E3,2.697E3,4.2E1,5.3E1,1.672E3,1.858E3,1.083E3,1.501E3,2.693E3,4E0,3.2E1,1E1,2.4E1,2.9E1,1.77E2,1.495E3,3.13E2,1.545E3,1.246E3,2.55E2,2.009E3,6.84E2],"tree_param":{"num_deleted":"0","num_feature":"4","num_nodes":"27","size_leaf_vector":"0"}},{"base_weights":[2.2020852E-2,-8.22181E-2,2.8550321E-2,-4.2289436E-1,-7.943941E-2,2.723221E-2,1.6792122E-1,3.451797E-2,-8.174155E-2,3.3682916E-2,-1.0907372E-2,-6.2515E-2,3.295837E-1,1.5747079E-1,-5.8236618E-2,-5.8955017E-2,-8.701855E-2,1.153405E-2,4.0940356E-2,1.5652085E-2,-3.5567436E-2,-2.0114735E-1,9.735358E-2,5.8690166E-1,1.861427E-1],"categories":[],"categories_nodes":[],"categories_segments":[],"categories_sizes":[],"default_left":[1,1,1,0,1,1,1,1,1,1,1,1,1,0,0,0,0,0,0,0,0,0,0,0,0],"id":58,"left_children":[1,3,5,-1,7,9,11,13,15,17,19,21,23,-1,-1,-1,-1,-1,-1,-1,-1,-1,-1,-1,-1],"loss_changes":[6.0381303E0,4.6149635E-1,1.5286431E0,0E0,1.3924122E-1,2.0347667E0,2.9263294E0,1.346194E-1,5.6194782E-2,1.1364708E0,7.8454125E-1,7.5096E-1,1.5886106E0,0E0,0E0,0E0,0E0,0E0,0E0,0E0,0E0,0E0,0E0,0E0,0E0],"parents":[2147483647,0,0,1,1,2,2,4,4,5,5,6,6,7,7,8,8,9,9,10,10,11,11,12,12],"right_children":[2,4,6,-1,8,10,12,14,16,18,20,22,24,-1,-1,-1,-1,-1,-1,-1,-1,-1,-1,-1,-1],"split_conditions":[1.85E1,1.35E1,4.15E1,-4.2289436E-2,1.45E1,3.45E1,5E-1,5E-1,1.65E1,2.25E1,5E-1,4.25E1,4.25E1,1.574708E-2,-5.823662E-3,-5.895502E-3,-8.701855E-3,1.153405E-3,4.094036E-3,1.5652085E-3,-3.5567437E-3,-2.0114735E-2,9.735358E-3,5.8690168E-2,1.861427E-2],"split_indices":[1,1,1,0,1,1,0,0,1,1,0,1,1,0,0,0,0,0,0,0,0,0,0,0,0],"split_type":[0,0,0,0,0,0,0,0,0,0,0,0,0,0,0,0,0,0,0,0,0,0,0,0,0],"sum_hessian":[8.867E3,5.22E2,8.345E3,3E0,5.19E2,8.268E3,7.7E1,1E1,5.09E2,7.072E3,1.196E3,3.2E1,4.5E1,4E0,6E0,9.8E1,4.11E2,1.746E3,5.326E3,5.76E2,6.2E2,1.7E1,1.5E1,1.5E1,3E1],"tree_param":{"num_deleted":"0","num_feature":"4","num_nodes":"25","size_leaf_vector":"0"}},{"base_weights":[1.9739859E-2,7.921899E-3,3.0869868E-2,2.7143274E-2,-9.430812E-3,3.7678044E-2,-7.7745584E-3,-5.8031984E-2,3.3423446E-2,-1.0716039E-1,2.1819333E-3,2.4865493E-2,1.6697384E-1,-9.020728E-2,5.30288E-2,-1.3727865E-1,-3.892162E-2,4.269841E-2,2.3562131E-2,4.0067308E-2,-9.938863E-3,1.3944827E-1,2.2618081E-2,1.7717046E-1,1.5545842E-1,-4.4139914E-2,-1.39908E-1,1.3158777E-1,2.49634E-2],"categories":[],"categories_nodes":[],"categories_segments":[],"categories_sizes":[],"default_left":[1,1,1,1,1,1,1,1,1,0,1,1,1,1,1,0,0,0,0,0,0,0,0,0,0,0,0,0,0],"id":59,"left_children":[1,3,5,7,9,11,13,15,17,-1,19,21,23,25,27,-1,-1,-1,-1,-1,-1,-1,-1,-1,-1,-1,-1,-1,-1],"loss_changes":[1.169882E0,1.4398273E0,1.2055454E0,1.0974462E0,2.5753417E0,6.4483414E0,3.4481554E0,2.0819187E-1,1.7350602E-1,0E0,9.3211687E-1,9.097352E-1,1.3670921E-2,6.623821E-1,8.6981153E-1,0E0,0E0,0E0,0E0,0E0,0E0,0E0,0E0,0E0,0E0,0E0,0E0,0E0,0E0],"parents":[2147483647,0,0,1,1,2,2,3,3,4,4,5,5,6,6,7,7,8,8,10,10,11,11,12,12,13,13,14,14],"right_children":[2,4,6,8,10,12,14,16,18,-1,20,22,24,26,28,-1,-1,-1,-1,-1,-1,-1,-1,-1,-1,-1,-1,-1,-1],"split_conditions":[5E-1,2.65E1,3.45E1,1.75E1,2.75E1,3.25E1,3.65E1,1.55E1,2.25E1,-1.0716039E-2,2.95E1,1.65E1,3.35E1,3.55E1,3.75E1,-1.3727865E-2,-3.892162E-3,4.269841E-3,2.3562133E-3,4.006731E-3,-9.938864E-4,1.3944827E-2,2.2618081E-3,1.7717047E-2,1.5545842E-2,-4.4139917E-3,-1.39908E-2,1.3158778E-2,2.49634E-3],"split_indices":[0,1,1,1,1,1,1,1,1,0,1,1,1,1,1,0,0,0,0,0,0,0,0,0,0,0,0,0,0],"split_type":[0,0,0,0,0,0,0,0,0,0,0,0,0,0,0,0,0,0,0,0,0,0,0,0,0,0,0,0,0],"sum_hessian":[8.895E3,4.315E3,4.58E3,2.047E3,2.268E3,3.894E3,6.86E2,1.4E2,1.907E3,2.4E2,2.028E3,3.544E3,3.5E2,2.91E2,3.95E2,2.6E1,1.14E2,9.81E2,9.26E2,4.91E2,1.537E3,6.7E1,3.477E3,1.78E2,1.72E2,1.52E2,1.39E2,1.03E2,2.92E2],"tree_param":{"num_deleted":"0","num_feature":"4","num_nodes":"29","size_leaf_vector":"0"}},{"base_weights":[1.4082137E-2,2.9910365E-3,7.605713E-2,-1.8652768E-1,4.966656E-3,1.0043626E-1,-1.8278552E-2,-3.1545278E-1,3.247151E-1,1.5462565E-1,3.8843032E-3,1.02137454E-1,-3.7463737E-1,-9.034727E-3,-6.4228904E-1,-1.4346352E-1,-5.817915E-1,2.1639247E-1,7.219823E-1,2.1820138E-1,-1.0795455E-1,-2.0956986E-2,1.1592975E-2,-5.9776306E-2,-6.596103E-1,3.1706332E-3,-9.75272E-2,-1.0131903E0,2.3520732E-1],"categories":[],"categories_nodes":[],"categories_segments":[],